10510 20
的 -0.354143 0.20316912 -0.18532385 0.7157751 -1.0201421 -0.58959466 2.0518909 0.15522805 0.9414143 -0.7884115 0.38042465 -0.56462383 -2.082838 -0.5160804 -0.43905938 -0.4987868 0.96945053 -0.395598 -0.74372727 0.2717859
是 -1.0354038 0.8479201 0.23379673 2.277487 1.0755739 0.1460469 0.8099117 0.9138305 0.96307397 -0.0013446669 1.5062699 -0.93407637 -0.53505 -2.3340259 -1.771351 0.0913807 -0.0062593953 -0.8296164 0.36186615 0.97006005
都 -1.363624 0.5525723 -0.87333745 0.14209765 -0.5380992 -0.9006732 -0.8054974 -0.81042796 -0.6172365 0.6869706 0.37750396 0.3334063 -3.7977538 0.8840417 -0.36898258 -0.1434093 1.4131528 -1.7249507 -0.5236088 1.3030137
在 -2.2417126 0.6405626 -2.9925196 -2.8363953 -0.012765002 -0.5428856 1.5759856 2.4411983 0.39648744 0.06581022 0.9746602 1.1224077 -2.5194156 -0.74853706 -0.52923274 1.628285 1.7727126 -1.0228281 -0.11039867 -1.7719879
就 -0.6117609 -0.26208133 -1.6973553 1.9797916 1.14422 -0.9097715 -1.2169824 -0.8970122 0.65748096 -1.3693507 -1.2316362 -0.659029 -2.2020485 1.2839935 0.11281111 0.5137484 -0.27370182 -0.09307831 -0.6023796 1.1324675
不 -1.3025352 0.745817 0.019064302 3.6415863 3.0690987 -0.8462774 -1.369517 3.0145543 0.28977886 -2.8208363 0.29186141 -2.519457 -1.7664609 0.6707759 1.4601761 2.1916661 -1.3168283 -2.0039802 -1.1225367 -0.2001696
人 -2.5977628 0.033778723 -0.40920445 -0.9146226 1.9011256 -3.2997143 -0.93694186 1.07104 -1.5624434 -1.1275959 2.4082549 -2.442233 -2.280159 -0.23804139 -1.4751627 -1.0443763 0.5959825 -1.4892639 0.04872709 1.6884565
也 -0.7648188 -0.04032374 -0.31688294 1.9364384 -0.33183506 0.33108062 -0.8725292 -0.07705775 -0.64547044 -0.4670541 -0.18613467 -1.0698448 -2.438707 -0.07998447 -0.68189603 0.08203418 0.76098144 -2.2398992 -0.89946 1.6813293
有 -1.7629596 0.19869241 0.5344631 1.5925332 1.0804279 -0.3137242 1.2314215 -0.27231804 0.40353486 -0.79750866 -0.30877256 -1.3748966 -0.8852739 -1.9092256 -1.670361 -1.0738778 -0.47065586 -0.5903295 0.28250068 0.13447122
好 -2.305112 -0.43798473 -0.88628596 1.0163435 -0.7209439 0.66425425 -1.4149066 -0.25882366 1.9436387 -1.2398665 -0.8853318 0.29868773 -0.30878896 -2.5839338 -1.2881963 -1.5722507 0.30974656 -0.82329077 -1.9145538 -0.041809354
还 -1.0055207 -1.232633 -2.0069437 0.78520805 1.9673027 -0.5147906 -1.5117548 -0.97215426 -0.1736914 -0.42407328 -1.7342134 -0.3911434 -2.5039675 0.8644485 -0.27851453 1.2701051 0.59313196 -2.3206048 -0.6153861 0.70228934
和 -0.78176004 0.8838143 -0.9463637 -0.77017295 -0.79125726 -0.88532555 2.0239584 1.4458792 1.7116258 -1.536909 0.23414284 -0.11035228 -0.85696405 0.1361455 -0.8216415 0.35109645 0.4811222 -1.450352 -0.16460012 -0.08259181
一个 -1.6022097 0.2311253 -0.073649734 -0.9016243 -0.40104738 -1.1353925 0.61685836 -0.8330068 1.6996158 -0.54876137 -0.0774488 -1.1733956 -4.6260014 0.7792656 -1.4711913 -1.5913857 0.17336698 0.37075102 1.6993722 -0.29842365
要 0.24388124 0.9841942 0.4767218 1.3803092 0.6154328 -1.5946313 -1.578212 2.8710928 -0.06703824 -0.26104602 2.0333984 1.757801 -1.5363774 -1.1400961 -0.34508574 -0.4017463 0.46416712 -1.3496559 -0.2663607 -0.52682227
说 -1.3269922 -0.46655995 -1.6612965 0.112240724 0.30740047 1.3497871 -1.0764657 -0.94389063 0.9272122 -1.917612 0.07709437 0.3613481 -1.2790431 -0.67928565 -1.0234376 -0.02464837 -1.9290624 -2.3904667 0.61847895 0.57319295
想 -1.0707861 1.3775628 -1.9247849 0.2042243 1.4303881 0.25391227 -0.8953485 0.6474857 0.5585498 -2.8138895 1.015118 2.8863502 -1.2589711 -0.96559954 0.8900862 -1.6959944 -1.6774703 0.31390023 -1.7172925 0.56046575
又 1.3616316 -0.6602173 -0.62689745 1.7318448 -0.60190976 -0.92528546 -0.9733511 0.19828382 -0.6041216 -0.5785924 -0.52612317 0.16537774 -2.6161733 -0.7579392 0.48056453 -0.11157531 1.4334748 -0.23981908 -2.1172225 0.74659574
这 -0.4778142 0.3060108 -0.48273498 1.0759151 -1.2705419 1.4558812 -0.22463381 -0.6774721 0.30592543 -0.80827576 1.2385936 -0.2999615 -1.7241305 -2.9818676 -0.8118554 0.7806912 0.6903257 -0.22630799 0.28948236 0.6877847
去 1.529884 -0.44951928 -0.25307724 -0.13025682 0.22257897 -1.0058147 -0.34081888 3.052786 1.4506798 -2.3771212 0.97310805 2.0607686 -2.0979207 0.7945935 -1.0062728 -0.057943728 -0.49547866 -0.9418023 -1.3921161 -1.4475962
被 -0.5642567 -0.409697 -0.48082262 -0.33467898 -0.5531163 -1.7420728 1.7173352 0.20978566 0.397611 -0.1780174 1.5532016 0.73251504 -1.8326031 -1.3250747 -1.4842832 2.3593984 1.8609135 0.4251524 -1.3490806 -1.3990006
到 -1.7102224 -0.8893198 -0.83625734 -0.7032298 1.3582791 -1.772848 0.6630777 1.8597834 0.75333333 2.2863247 -1.0758538 3.3454368 -2.9599638 -0.6371262 0.018645592 1.0684278 2.085151 -1.1552336 -0.737677 -2.1332417
给 1.3864563 -0.8027031 -0.48032373 1.3318099 -0.18817417 -0.67271644 0.51723754 0.1256043 1.2351139 -1.8771211 1.2474086 1.3404081 -1.5074449 0.3558261 -1.2183022 -1.2385335 -0.7331945 -2.372389 1.3018394 -0.04246837
没 -2.238684 -1.4560404 -1.386441 1.76101 1.8453758 0.31554917 0.442475 0.4749105 -1.037661 -2.1021948 0.5544932 1.3759404 -2.3686328 -1.2984459 1.0704917 -0.14824797 0.1310482 -0.9604225 0.22970569 -1.3406444
看 0.29818097 -1.3279293 -0.9957331 -0.13698612 0.76667875 0.5794984 -0.29824054 -0.51187897 1.2066988 -0.32504764 -0.32429212 2.3790655 -1.8917813 -0.74634165 0.77638555 0.8927277 -2.3072908 -0.5718714 -0.16153455 1.0348812
今天 0.59703714 0.41346356 -1.9226736 0.9034494 -0.060267836 -0.17672911 -0.95759046 -0.94110817 1.0554295 -1.3757923 0.768745 1.079676 -2.1966345 -1.9955577 2.2313192 -0.08783747 -0.14278968 0.6007037 0.7999886 0.28670228
真的 -1.9828798 0.7766652 -0.30999896 1.0535463 -1.1016091 0.11188864 -0.5465601 -0.7164602 0.78554666 -0.14211681 0.80097 0.8990952 -2.3288534 -1.1504385 0.32566762 -0.94431186 1.0991949 -1.7233952 -2.354231 1.8088106
让 -2.7514029 -0.8842744 0.015679581 0.9292286 -0.53939813 -2.4246626 0.02565643 0.46844405 0.4107879 -1.4000429 0.7988887 0.21071568 -1.6400477 0.76166165 -0.8106392 -0.84187293 -0.7248808 -0.33080658 -0.75397754 0.11319799
着 -0.56900066 -3.1127264 -4.47025 -1.2000488 -0.53801006 -2.2739878 -0.69739175 4.109252 1.6707658 -1.5762732 1.1347654 -1.7566228 -1.5536408 -0.3781737 -2.6434524 0.038432516 2.7947845 -3.0832713 -1.0694147 -0.44789702
吗 -1.6264751 1.5962415 -0.3513325 1.7977614 0.93276644 0.3060414 -0.943948 0.0074797864 1.4329685 -0.81310034 0.07474616 0.949624 -0.9850167 0.48651585 0.11508728 0.042148832 -0.23265117 -1.5455427 -0.24177913 1.3409991
现在 -1.3892642 -0.8247413 -0.22663102 0.396385 1.2526523 -1.0611464 0.079502724 -0.5267487 -1.3511139 -0.057814803 0.6184642 1.1051459 -2.5867698 -1.7757257 1.9593931 0.07084787 -0.11264301 -0.47661227 -0.9703032 -0.3418345
做 1.0602127 -1.8646448 0.46358457 -0.82347685 0.29399237 -0.75504816 0.61469346 -0.51339453 -0.3401815 -2.2973485 0.59961486 0.7952479 -2.3911614 -0.6461454 -1.8934705 -2.1168468 -2.5027595 -0.53296447 -2.0701401 0.7650928
知道 -0.35688433 -0.118138574 0.36256394 2.18071 0.39243326 1.2271731 -0.89731437 -0.79134023 -0.9259143 -0.36393452 0.34875414 0.69290483 -3.3915727 -2.5800836 -1.2537512 0.97798145 -2.9704783 -1.2675531 -0.6518933 -0.057428744
吃 1.8423892 -1.6450783 -2.9001195 -0.614019 0.69481575 0.77913207 -1.3222884 -1.8853658 2.01626 0.24092612 -1.5814232 2.3172214 -2.5655584 -2.7936943 -1.5648456 -3.782169 -1.8488877 -3.0102773 0.39758742 -0.73275286
个 -0.13597149 -0.7537281 0.86548364 -0.37473282 -0.25284052 0.33386233 0.73457384 -2.779921 1.748079 -2.300486 -1.3724551 0.63239866 -3.6441143 -0.6603234 0.11930659 -1.7293799 2.1326613 -1.4266912 1.8410758 0.09589938
能 -2.399756 -0.22035894 -0.6903864 1.4101733 1.0306277 -0.9991905 0.6592392 1.6838078 -1.2596588 -1.6342077 1.5389993 1.1198288 -1.0719333 -0.25590608 1.5866811 -0.49383345 -0.76660514 -2.5572135 1.3124312 -0.7383108
上 1.8076837 -0.7153049 -1.3861381 -0.5942893 -0.48083565 -0.37448087 2.518441 -1.716472 0.40100348 -0.91532826 0.49737602 -1.006007 -2.803511 -1.5488786 -0.40186736 0.6627744 0.55705184 -0.64892 0.2013185 -0.99959785
多 -0.6456039 -0.6108332 1.463411 0.7661553 0.9495307 0.33369046 -0.07402989 -1.2154583 0.37171116 -2.2892525 -0.79727334 0.17390098 -1.9555422 -1.0850489 1.5679889 -2.6276178 -0.805418 -1.5209657 -1.4863805 0.6996098
对 -2.106381 1.3198388 0.08488279 -0.24167322 -1.1048423 -0.6476397 0.9035945 0.7468529 0.5534566 -1.9462967 -0.12381941 -0.71960056 -0.3597322 -0.34506392 -2.0557842 -0.18506624 -1.3186399 -1.81246 -0.99289787 1.1889378
来 0.9535505 -0.7189746 -0.75550735 1.0497718 -0.013112307 -0.993916 0.215455 1.8944405 -0.1984819 -2.3461628 0.81386787 1.344774 0.24888413 -1.1927413 -1.8297539 0.43217996 0.018209526 -1.0806572 0.7343954 -0.26670003
一 -0.80675715 -1.6068053 -3.1888049 -0.4645563 1.0228242 -0.51032275 0.4330347 0.2965588 4.3041964 -1.799575 -1.8309308 0.51266015 -3.2345629 0.49257877 -0.40877345 1.1168246 1.0928502 1.0713528 -0.13217515 -1.4975421
感觉 -2.084099 -0.103815615 -1.2749785 -0.17529999 1.7154837 -2.2162666 -0.43754992 -0.8808006 0.13571617 0.34973857 0.7216776 0.27629238 -0.79303414 -2.1421447 1.2274325 0.48695952 -0.31151783 0.34785113 -2.183473 1.7857194
呢 -1.0940958 -0.22370575 -0.77636874 1.8468671 0.5898585 0.16712707 -0.5134068 -0.13399224 0.63003236 -1.2830596 0.41050282 0.520533 -0.80809283 -0.24333099 -0.5781811 0.36825317 -0.6185888 -1.3204353 -0.59898794 0.6655463
得 -1.1493597 -2.507751 -0.6642733 0.70676935 1.0720519 -0.5005313 -0.14478223 1.0806911 0.75103164 -1.5405798 1.1038655 1.4196209 -1.3634329 -0.76690125 0.8214183 0.48229793 0.35002536 -1.6624511 -1.7192472 -0.41944072
太 -2.6679657 -2.5895188 2.646453 0.7064151 0.7334364 -1.6750053 0.23699763 0.096590064 3.478377 -1.954053 -0.7777437 -0.4264463 -0.95996684 -1.0465683 -0.7076568 0.10117179 0.7883643 -2.3766358 -2.8663883 1.3775804
年 -0.018152224 2.5261087 0.7236417 1.3060904 1.3277241 -2.4395163 0.5309104 -0.32464474 -0.95653766 -1.555375 -3.0636797 1.3640617 -2.69833 -4.3920107 0.5486927 1.9127485 0.7163827 -0.7991612 2.5891442 -0.18480195
才 -1.11539 -1.037292 -0.58739185 2.4895163 1.7005569 0.19969681 -1.1894976 0.8186742 -0.45722535 -0.1925496 -1.4772443 -0.9862492 -4.6283836 -0.9082126 1.3001573 0.48355135 0.6855206 0.48439947 0.9438868 2.2188282
真是 -2.2781835 0.121476725 -0.28753585 2.0967116 0.32501575 -1.8055227 0.15597649 -1.4848487 1.5738724 -1.0810252 0.9181601 -0.38754937 -0.1580728 -0.7778766 -0.69037884 -0.04326243 1.6269802 -1.51388 -0.14555162 1.2928342
为 1.0158104 2.306151 1.3150965 0.97370327 -0.29416528 -1.8299389 1.353302 1.4527686 0.2039246 -1.7713557 -1.3537383 0.9239597 -1.6097647 -1.4649032 -0.8815955 -0.27987108 -1.4309545 -2.2502348 1.0558307 -0.015648812
觉得 -3.1032794 -0.5925764 -0.80118644 0.9860134 1.1222597 -0.6663653 0.8365508 -0.39119935 -0.63361377 -0.4265256 0.44683367 0.2955581 -0.953097 -2.6734397 0.57831544 -1.1435593 -0.71285003 -0.34199396 -1.587477 0.9032727
再 -0.3588906 -0.43362507 0.41586477 2.4140625 -0.1411784 -2.3297696 -1.403074 1.0794351 0.7031673 -2.3368018 -0.9316886 1.5686785 -1.5326011 1.6240435 -0.24503939 -0.9395822 -1.7702235 -1.0273926 0.10513115 -0.07476918
中 -1.3469445 -0.02485933 -0.11648632 -0.82477194 -1.610147 -2.9970763 1.7651545 1.2217258 0.15544705 -0.74007773 -1.6839806 -1.7436413 -1.4412019 -3.5953848 -0.392604 1.8256407 0.5253427 1.2183495 -1.4640236 0.7727717
最 -2.40794 0.10046238 0.9514724 -0.81420237 0.11643424 -1.1894479 0.44287592 0.6916964 3.1757858 -0.08610466 -1.5680379 -2.558487 -2.7922277 -0.9978405 -0.048643406 -1.3954694 0.86971885 -2.30883 -2.974645 0.34261268
过 -2.5926478 -0.12533247 -1.5051475 0.22551963 0.42373404 -1.1815183 -1.5896637 -0.09871224 -0.8393379 0.29564995 -0.9475124 0.83678705 -1.657862 -1.1205523 0.29565707 -1.7952814 0.040047724 -0.36976242 0.6701267 0.69601184
等 0.39689413 -0.14478487 -0.9090984 -0.41262093 -1.0881753 -2.1587405 0.12782417 0.15375115 -0.22075461 -1.6228185 -1.5498294 0.8720648 -0.6736159 0.06741849 -2.0783482 1.036292 -0.46228513 -1.9855326 0.7824483 -0.3929624
么 0.60887045 1.3012583 0.27662086 2.027532 -0.69578904 0.12107857 -2.5876505 -0.37921733 4.036868 -0.29408035 0.9860547 -0.23890874 -1.467689 -1.9592611 -0.39240402 1.2897929 0.2732433 -4.858373 0.19142504 0.17496686
跟 -1.1954758 0.2763448 -2.4903827 -0.072620705 0.1474059 0.15478669 0.15994382 0.3114017 1.7703261 -1.1622903 1.1580001 0.551243 -1.1976297 0.6587772 -0.38145277 0.6221324 -0.5943655 -2.0761774 0.53142756 0.12824064
大 0.6476667 -0.61879736 -0.3135177 -0.44030148 0.77166 -0.9635381 0.28715304 -1.5143843 2.1362195 -0.50540644 -1.1808639 0.08432827 -0.29891697 -1.6613349 0.1673947 -1.2101586 0.15671663 -0.6726318 -0.17161849 -0.4428996
喜欢 -1.5032251 0.7792399 -1.6558932 -0.29815885 1.4759735 -0.4243741 0.54381573 -0.9040892 1.7451844 -0.17712784 2.226185 -0.66324884 -2.2209895 -0.8839354 -0.008518964 -2.0018466 -2.0424933 -1.1376952 -0.36890492 0.6325474
那 -1.1470056 -0.326822 -1.177862 -0.3922837 -0.44091803 0.68895906 -0.21855618 0.3219924 -0.065486506 -1.1921493 0.7706675 -0.19939168 -1.4092139 -1.3803889 -0.35328045 0.66614956 -0.56939656 -0.02177693 -0.13185745 0.5533381
已经 -0.6425497 0.48483688 -0.069811836 1.7401403 0.5570683 -0.08405966 -0.031933878 0.29329616 -0.25289488 0.79078776 -1.3837779 0.09095066 -2.486528 -1.0389966 0.6503057 0.34174174 0.71518135 -0.15394321 0.2185484 -0.35027117
但 -1.6292813 0.5362889 0.98918813 1.4290513 0.28810486 -1.4392238 -0.37881783 1.5874226 -1.2620498 -0.9673782 -0.36528665 -1.1489049 -1.8947345 -0.6737795 -0.35782158 -0.27172142 -0.35563403 -0.9473963 -1.4468528 0.47683468
谁 -1.35327 1.5265648 -0.4349435 1.7881086 1.1832893 0.19965139 -3.1836689 0.98366016 -0.78352886 -2.108517 0.5385948 0.0054033683 -1.651763 0.16338441 -0.93973935 0.43411103 -0.97245336 -3.6378624 1.130562 1.908619
里 -0.2173444 -0.6886157 -2.7062218 -1.3350886 -1.6726679 -1.908658 1.5939397 0.030267399 -0.2692464 0.040076215 0.15086795 -0.6494149 -2.6823063 -1.9813781 -1.6349497 0.4174037 1.902645 1.6013286 -0.25882363 0.22575465
害怕 -2.9922283 -2.1686585 0.6794437 -0.9878541 1.3545353 -2.9190793 0.4842128 1.447128 -0.5416972 -1.7764223 0.33094525 0.5715324 -2.4787583 -3.1847203 -0.41663614 0.98770034 -2.1373372 0.7414249 -4.2225375 2.3075967
月 -1.2443566 2.8774424 -1.2863247 2.6471345 0.726819 -2.590901 -0.15187469 -1.9232737 -1.8461277 -2.779836 -0.95906776 1.9859353 -1.0130835 -5.63503 -0.42455333 0.78783077 1.5711869 -1.2158079 4.8965163 1.1636494
与 -1.1274905 1.0741862 0.57906467 -0.11038043 -1.6835337 -2.4568338 2.0644486 1.7217168 0.9857468 -1.1062877 -2.07231 -0.7490854 -1.5180929 -1.3401898 -1.0833287 1.1128349 0.18315944 -1.1932052 -1.2983279 0.64128006
一天 -0.9530149 2.1139262 -1.4155555 1.4118723 -0.080101304 -0.8931771 -2.8170931 -0.7334101 0.74606603 0.058098864 -0.8556336 -0.112122886 -2.4871624 -1.6702595 1.2236447 -1.1793429 0.1971294 0.7740236 0.5302073 -0.5554148
一直 -1.8635092 -0.74349433 -2.6298506 0.044681158 -0.2483306 -0.5517899 -0.6034886 0.56433165 -0.6349166 -0.10255413 0.2350966 -0.6569775 -2.2010076 -0.9536594 0.103897065 1.1775857 -0.35684225 -0.581529 -0.24981485 0.29746276
看到 -1.0280597 -0.7255616 -2.5169256 -0.91179043 0.5959657 -0.45348483 0.27542508 -1.1908245 2.0329626 0.50321865 -0.24751735 0.45567593 -1.9843411 -1.1310647 -0.062329903 0.93358207 -1.1692611 0.28995177 0.6625137 0.8648131
事 -1.8342783 0.21878834 1.2422312 -0.65311515 1.895931 -2.058971 -1.941211 1.6230533 0.84668463 -1.6729589 1.102835 -1.2125522 -1.437517 -0.72690594 0.17525506 -1.4990839 -1.5718799 -0.5317041 -2.0744047 0.61045486
从 0.9514393 -0.9482098 -0.7700604 -0.64906085 0.70426065 -2.4743924 1.2612095 1.1687057 0.9868607 0.43478894 -1.6437626 0.72449917 -2.765239 -1.2938526 0.24510497 2.0571682 0.16902547 0.6734351 0.073636174 -0.9272298
爱 -0.956432 0.9755798 -1.2356068 0.5190687 0.11592574 -0.67465526 -0.88830835 -0.07434939 0.76216555 -0.78036594 0.89757997 -1.21823 -1.8651536 -1.627186 -0.58121634 -2.9387999 -2.5924106 -2.2861326 -0.051098973 0.53154844
东西 0.15381145 0.57524645 -0.42125437 -0.58167166 3.1500611 0.41319773 -1.3962457 -0.18406038 0.40578097 -0.17382018 0.109223776 0.24950875 -2.347536 -0.5148472 -1.1712958 -2.3086834 0.031257812 -1.4320687 -0.56992143 0.08173722
用 1.0479037 -0.3884926 -0.21008831 -0.09107982 0.7859283 0.2561526 -0.25936553 -0.035014555 -0.28046104 -1.0477278 -0.8409848 0.36604458 -0.73131305 -0.6693994 -1.8185529 0.45523328 -0.24994221 -1.8770804 0.550953 0.6211457
发现 -0.18071556 -0.86630183 -2.13669 0.22035429 1.9190881 0.5027222 2.0049753 -1.6372014 0.7008726 0.103340186 -0.81906474 1.3907145 -2.8197474 -3.053507 -0.51821023 0.3182228 -1.1076214 1.4572802 0.8069402 0.72684765
走 -1.1261624 -1.2658985 -1.9189771 -0.4051615 -0.23811927 -3.0415392 -1.6696181 0.53101647 -0.40812084 0.60386187 -0.121646196 0.8550639 -2.100032 -0.7179256 -0.5422276 1.6402705 -1.9663519 -0.40071613 0.021251287 -0.62314594
却 -0.6478418 -0.12917852 -1.0526607 1.3909066 0.16030161 -1.9507545 -0.34539136 2.1977336 -2.6097023 -0.50882584 -0.2871224 -1.0376121 -2.6368663 -0.8937825 -0.35311067 -0.4146213 0.19903022 -0.3364139 -2.1897173 0.20572744
而 -0.4406797 0.5913748 -0.22501545 0.94851935 -1.0578172 -1.6893116 0.8148338 1.8561394 -1.4030615 -0.62657976 -1.5040488 -1.0951663 -2.1388435 -0.97331244 -1.2860608 -0.4641869 -0.61505616 -0.5564455 -1.106973 0.837208
后 0.42746168 -1.091701 -0.35075986 0.5654469 0.5176729 -1.0517982 0.030917661 1.2327362 -1.3484669 -1.4880015 -1.2047157 1.2860405 -1.8411301 -1.4693986 -0.19570245 1.451838 0.9209448 1.2571503 0.041056734 -0.33793455
死 -1.0233136 -0.32786965 -0.25988567 0.9876118 -0.13172372 -2.261034 -1.6762433 -1.0570465 0.33922657 -0.96047807 1.2871882 0.6543623 -0.869338 -0.5033866 -0.90087426 0.40537068 0.48541522 -1.288923 -0.9443627 -0.30254528
真 -2.6043627 -0.44598797 1.0789462 0.6030669 0.13129528 -1.1441332 -0.085626565 -0.5228545 2.130424 -1.9996074 0.8465974 0.5670599 -1.1595917 0.43690932 0.6007381 0.1385365 1.1667801 -1.4224893 -1.9822365 1.1363024
小 0.16571458 -0.33741903 -1.103119 -0.2971796 -0.3871776 -1.0027264 1.3625613 -0.36723018 2.2617927 -0.845181 0.0459175 -0.505163 0.14000228 -1.1917439 0.7229894 -0.17799275 0.24923207 -1.1956422 0.7522453 1.3477976
心情 -1.9159133 1.8061945 -2.4430413 1.6126261 1.375314 -2.0732343 -2.0908825 -0.7657708 2.0800426 0.87000805 -0.24923338 -0.20368484 -1.0301328 -1.3009279 1.1247519 0.48900416 -1.3775345 -0.86945647 -2.489605 1.3646955
下 1.0719829 -1.0220054 -1.572821 -0.20235176 -0.319509 -0.9039529 -0.00040319734 1.5399066 -0.25877112 -0.6863873 -0.59513044 0.77296406 -1.3694006 -1.0620518 -1.1763284 1.6999302 0.15844259 -0.29840842 0.41160452 -0.287016
一起 -1.4042544 1.1759238 -3.8043544 -0.70397425 -1.6768601 -1.256359 -0.6753138 0.5132736 -0.36132982 -1.4474638 0.791048 0.6348328 -2.160189 -0.9152862 0.14282039 -0.11624345 -1.8526933 -0.263589 1.4282271 0.14840835
逼 0.6106808 1.5168161 -2.5889552 -0.08495877 0.015648006 -3.9889247 0.874327 -2.2830398 2.2760575 -2.814654 0.8640462 -0.0630959 -0.7105758 -1.7812755 2.0227203 -2.3792868 -0.05013777 -4.9589005 -0.8905593 -1.437973
每天 -0.9675887 -0.1906558 -1.7441103 -0.09065547 -0.30818272 -1.587022 -2.0140722 0.6400939 0.38119024 -0.0103440555 0.8446054 0.38034904 -2.1930034 -1.7620578 0.6083504 -0.7132346 -0.76880866 0.4852251 -0.3037992 -1.7652808
生活 -1.4688883 1.9871805 -0.5323818 -0.7705788 -0.59504586 -2.3529644 0.17463578 1.3259985 -0.7006278 -0.04353902 -1.5159956 -1.267379 -1.1387744 -1.767247 -0.21674308 -0.62528 -0.96954936 -1.1693494 -1.6703889 1.0864013
这种 -2.2630022 1.022879 0.74021363 0.30759782 -0.6233182 -0.6522296 2.3139102 -0.35452083 0.8393482 -1.508228 0.15232398 -1.0910591 -2.8900936 0.91631 -0.035427075 0.43387353 -0.16003999 -1.1258478 -1.3757768 -0.22463639
买 2.2769597 -0.34242684 -1.2685001 0.09212583 0.88981295 0.48277307 0.13562985 -1.3373088 0.8224594 -0.5393205 0.9797723 1.8570825 -2.1868765 -1.6011266 -0.68165946 -2.6717656 -1.5893459 -2.147122 1.2844678 -0.95075244
时间 -0.5970845 0.6214655 -0.5560166 -0.006378641 0.95903325 -1.145585 -0.96870244 0.2548801 -2.1848528 -0.5274377 -1.4385343 0.4684249 -0.9461955 -1.0944121 0.31657207 -0.64190847 -0.39515525 -0.9972255 -0.093804516 0.07849915
事情 -1.1752886 0.5586969 1.3764733 -0.9912243 2.4811904 -1.5755967 -1.6898745 1.8484013 0.20409034 -1.4871372 0.41118315 -0.84473526 -1.9304532 -0.66332126 0.024035407 -2.150106 -1.6079721 -0.6526128 -2.1293044 0.26478353
晚上 1.5585707 -1.7868471 -1.4245657 0.630991 0.974365 -2.214014 -2.6272538 -1.1553141 2.1361895 -1.583555 -0.09455288 0.47020155 -2.5006003 -2.0299838 0.38714185 -0.28286773 -0.19516708 1.3826993 -0.06392931 -0.7617347
不想 -1.4951977 0.62950623 -0.78782034 1.0976614 1.5711181 -1.5359994 -1.8340567 2.662276 -0.6559497 -3.303459 1.259791 0.8656573 -1.2873273 -0.5501326 0.6073091 -0.9646797 -1.4743202 -0.34351966 -2.3067653 -0.99730116
可怕 -1.9883665 -1.2368715 2.2316077 -0.9328201 1.535345 -2.1058073 0.9091975 -0.19833748 2.065669 -1.8618443 0.7946032 0.72638375 -1.4784786 -3.3297946 0.7650261 1.1290082 -1.881477 -0.8300124 -2.436118 4.238568
工作 0.30994508 2.1317601 0.47954705 -0.12698053 -0.09122196 -1.7992835 -0.37339568 0.949671 -1.2691517 -2.1543384 -0.5393356 0.30821076 -0.66095746 -0.39560744 -0.023507204 -0.7731638 -0.551722 -1.4609686 -0.5657925 -0.8993209
睡 -1.4160602 -2.7918262 -2.6436055 1.2043006 0.70248 -1.495031 -2.6282337 -1.4898282 -0.010915728 -0.28141433 -1.2158839 2.2207527 -2.3603015 -2.3941252 0.2814381 0.31254944 -1.7198948 0.38249296 -1.7656509 -0.40827724
像 -1.5327225 -1.0913583 -1.0429322 -0.18105868 0.7046768 0.041789714 1.0537862 -1.7551252 0.72452694 -1.541931 0.061361685 -0.44541234 -0.5435507 -2.1384888 -0.32883692 0.16364299 -0.7754053 0.14366382 -0.5990364 -0.2707376
找 0.43591917 -0.09593549 -1.2177111 1.9850702 0.2637308 -1.2563992 -0.2782619 -0.3502824 -2.0406823 -2.4106429 0.48107314 1.3565536 -2.0853543 -0.8253879 -2.694346 -1.4246798 -1.7873485 -0.4025356 0.51349926 -0.32618982
只 -1.5035526 0.7412482 -0.95446503 1.1638739 -0.09179694 0.76783454 -1.2921082 1.1209766 0.58548737 -2.2194433 -1.0298744 -0.061158452 -2.3527853 0.6286517 -0.52728546 -1.3267653 -0.27002758 -0.33038846 0.108943716 0.14142883
时 -0.26794416 -0.23048872 -1.0248681 -0.009167826 0.24172899 -0.5550139 0.48185307 1.5161806 -0.3803693 -1.1344218 -0.6894165 0.034903992 -1.6096429 -0.3917853 -0.8595923 1.090431 -0.18084158 0.33536267 -0.50933343 -0.1069714
当 -0.9643992 -0.26691568 -0.70757353 0.6679403 -0.45383915 -0.3717559 0.35049456 0.69976157 -0.18660867 -0.7744254 0.40962905 -1.0561534 -2.1129448 0.07553223 -0.95084095 0.09813457 -0.4797195 -0.25137606 0.042693917 1.1897417
更 -2.2372205 -1.5015801 1.680341 0.5456906 1.3312011 -1.1004877 0.21122257 1.0357134 2.0232723 -0.74301225 -2.358502 -1.4023747 -2.0516825 -0.008251797 -0.5245603 -0.9434184 -0.8071814 -1.7156622 -2.0334349 1.2683399
不好 -2.866465 1.8661026 -1.1508191 0.75004447 0.22085798 -1.0817852 -1.7561471 0.5442253 0.73905486 -2.0179625 1.5043823 -0.7186548 -2.1747792 -1.8124844 0.5643625 -1.3289438 -0.14775416 -1.1697997 -1.8783486 -1.4884552
以后 -0.94677263 -0.11394506 -0.8006821 0.99956924 -0.33964232 -1.3129194 -1.4397902 1.6784527 -0.43071967 -0.942338 0.23993778 0.92903656 -1.5758034 0.1999383 0.10429942 -0.41770473 -0.75478774 -0.64569366 -0.8693254 -0.59012556
最近 -1.210219 0.15568288 -1.3453627 0.7848926 0.6495958 0.100496 -0.89203495 -0.25311008 0.69102347 -0.12578002 0.8461561 -0.10477021 -1.5050167 -1.637204 0.63848794 -0.94517195 1.1123505 -0.22268145 -0.9080472 0.7202152
妈 -0.29023203 0.7124068 -1.108584 -0.3841209 1.6427107 -1.2477082 -1.3192035 -1.2543077 1.0992059 -1.985931 1.3399491 1.0544059 -0.27033308 -1.3602144 -0.16773835 -0.5950407 -0.19225931 -1.5564623 -0.1408037 -0.07207154
手机 0.78095186 -0.91034704 -2.6999645 -0.6580789 2.2812378 -0.02631548 -0.27526864 -0.83781517 1.0992175 -1.0471561 0.46816432 0.9703813 -2.246995 -0.6050332 -1.0919715 2.2052925 1.6149142 -0.735174 0.37553602 0.31973836
明天 0.8807284 0.011976459 -0.9182017 0.9549154 -0.9835887 -1.8724284 -1.9365697 1.4481546 0.33662438 -1.5131894 0.12537636 2.6306252 -1.129655 -0.7437335 0.7985696 -0.68743455 -0.59490746 -0.99484134 -0.6413888 -0.8324789
点 0.4048179 -0.9891486 -0.71916795 0.23860025 -0.051925622 -0.6490158 -0.96508056 -0.2858477 0.41116917 -0.18515538 -0.4200551 1.5693523 -1.5122515 -1.3733821 1.2316041 -0.0032671867 -0.59534264 -0.6645564 0.3550506 -0.6195936
希望 -2.0014062 0.47372064 0.17289788 0.8213337 -1.0381163 -2.3257823 -0.9625049 0.40427548 0.45508102 -0.73184824 -0.43619293 0.5912634 -1.3099023 -0.65789664 1.275027 -0.82832587 -3.0157619 -1.4272547 -0.275944 1.4426317
睡觉 -0.44287038 -1.3671966 -3.0755897 0.54563355 -0.5873195 -2.0385218 -2.317789 -0.4170607 1.0777861 -0.18263021 0.50370955 1.8618033 -2.541608 -1.3393209 0.22166033 -0.521575 -1.3395507 -0.041066453 -2.1925418 -0.7986021
突然 -1.0766543 -1.3162143 -3.4144225 0.43548042 0.561179 0.2516383 -0.21598367 -0.0060169823 1.0251337 -0.8334832 -0.88532627 -0.9101731 -3.5396626 -1.3383179 0.24575368 0.54804736 0.7399108 1.5055034 -0.85086864 1.1052849
朋友 -1.0310452 1.1019676 -1.540211 -0.39142445 0.78370374 -0.28116322 -0.57394767 1.4068626 0.059566922 -1.3459202 0.36627495 -0.24386777 -1.2600131 -1.0474057 0.21963137 -1.3435873 -1.7952412 -0.06497907 1.224391 2.004207
开心 -1.2163008 0.57569873 -2.0817435 0.7758668 0.26476645 -2.212143 -1.8076841 -0.7698882 1.6876186 -0.42726576 1.6059093 -0.09141806 -1.4949026 -2.3444219 1.4627532 -1.3746421 -1.6720115 -1.678916 -1.8778776 1.1444134
完 0.9487588 -1.5184276 -0.8197635 0.28169203 0.015873304 0.21759926 -1.2943482 0.64078754 0.35132265 -2.1122246 -0.6610451 2.2631524 -3.3984022 -1.3993394 0.7087828 -0.6109705 -0.18631363 -0.5806923 0.30126607 -1.5497279
快 -0.6096672 -0.42375877 -1.4368668 1.70881 1.4597982 -0.95856375 -2.0828776 -0.21313623 -0.37998185 0.40045092 0.337287 1.8605788 -1.3382734 -3.1220398 -0.023828067 -0.04557635 1.1765794 0.2092771 0.24335895 -0.39590165
比 -0.35556188 -1.0515833 0.0873519 0.7502754 0.34502485 -0.08962787 0.9321751 0.62923527 1.5824 -0.92329687 0.46620542 -0.11789893 -0.53935844 -1.1793945 0.064353526 -0.7819647 -0.81270164 -1.7067672 0.41805097 -0.061945304
世界 -1.6163988 1.4227321 -0.10610606 -1.5672128 1.4104776 -1.1732 0.08531856 0.5012207 0.8029633 -0.17512766 -1.1225929 -2.0877998 -2.0797982 -1.8604915 0.477689 -0.363278 0.6733897 0.38529924 -0.67721355 0.40357563
一次 0.341663 2.0065658 -0.8811902 1.3246051 -0.5429051 -0.80655617 -1.9759676 1.0539329 -1.496995 -1.1879404 -0.7628038 0.6766955 -1.9190619 -1.6762406 -0.03660986 -1.0638604 -0.2147004 0.5133153 0.7772251 -0.44242078
一下 0.1343148 -0.53205913 -0.66843164 1.0751566 -0.9373237 -1.0716995 -0.42309842 1.1696024 1.0654548 -2.01585 -0.60150737 1.4785049 -0.43989736 0.25578246 0.27977088 0.14420494 -0.3661424 -0.30753425 -0.15121135 -0.14349514
并 -0.7778708 0.30120286 0.7816286 0.838281 -0.7323961 -0.7773267 1.0100923 1.2767247 -0.4457551 -0.9435526 -1.3189138 -0.922169 -2.1941082 -0.1650872 -1.4233085 0.5722515 -0.8855989 -1.5456845 -1.5741657 0.42707655
[惊恐] -1.8038177 -1.2526274 1.1375642 -0.70713997 2.296209 -3.4391701 1.9053472 1.0900515 3.7553709 -3.1856089 -0.63312495 3.0547936 -3.8724716 -3.4234743 -0.21687068 2.8122473 0.12418093 -0.4274104 -0.7625892 4.559274
宝宝 0.5647032 -0.40448493 -1.2880168 0.53702456 0.22188838 -1.5771673 -1.5169353 -0.71236426 1.4253751 -0.68109584 0.38086548 1.5279962 -0.06303475 -1.2862768 0.19398388 0.12213344 1.3565272 -0.5839763 -1.0185678 1.695716
讨厌 -2.047051 0.9795691 -0.5480105 -0.43999806 0.69823146 -3.1340063 0.7607027 -0.6742431 1.8682208 -0.8073358 1.5957046 -0.9552851 -1.134671 -1.5009233 1.0075839 -0.7503754 -1.1884758 -0.90009856 -2.2990997 1.1761241
哭 -0.5306389 -1.1652627 -2.4467344 0.49607113 -0.21257864 -1.0032276 -2.48078 -0.61316353 -0.0074545867 -0.4974465 0.21939582 1.4781463 -1.6027571 -1.8203177 -0.60916626 -0.65822184 -0.8042795 -0.47189942 -1.9475954 -0.35667467
一点 -1.9733517 -0.10013856 0.19930352 1.4280037 0.1324747 -0.27959692 -1.542137 0.100646205 0.24651936 -0.31782252 0.5728415 -0.06710212 -0.76066035 -1.1797969 0.012851685 -0.47203782 -1.2927364 -1.4307669 -0.7831846 -0.17712344
地 -0.9546323 -1.0973061 -1.0152918 0.5542901 -1.6119232 -2.6348886 0.3959479 2.4712617 0.30037028 -0.9125964 -0.6116934 -0.33380955 -1.4472419 0.64000374 -0.064112864 0.9790722 0.24055248 -0.39696068 -0.9016784 -0.30499095
叫 -0.22630462 -0.18192506 -1.6025994 1.3991454 0.5900338 0.22951399 -0.66049516 -0.19847195 1.4166671 -0.7378979 1.580907 0.076065786 -1.5183778 -0.3416495 -0.33257365 0.84521985 -1.2054757 -1.2626096 1.6074872 0.6613882
可 -0.86699456 -0.12892878 0.15170805 1.016483 0.31634653 -0.2660281 0.31623295 1.5149385 -0.26785672 -1.0594872 -0.8002542 0.42284992 -0.7691206 -0.68786496 -0.18962649 -0.7439608 -0.32305735 -0.57394445 -0.8599525 0.19384624
心里 -2.495223 -0.25739104 -1.4794519 1.0817213 0.046772975 -1.1866093 -0.36657214 -0.12726636 -0.709218 -0.5151333 0.2050121 -0.78964674 -1.4814132 -1.7578514 -0.18614718 -0.46684924 -0.42083153 0.41967794 -2.8428273 0.67917615
一定 0.76081556 1.4412762 0.73604125 0.33744636 -1.912048 -1.2526945 -1.84771 1.4079031 -0.19889869 -0.049191464 0.6321913 0.986959 -2.523535 -0.0005750366 -0.46222702 -0.6085951 -0.7449629 -2.5254655 -1.8117574 0.9205919
傻 -0.17872451 0.27005997 -1.756755 -0.30973583 1.1255568 -2.5441732 1.5684462 -2.5360124 3.5037143 -2.2672844 1.7888772 -0.64569795 -1.5596092 -2.7103472 1.0762665 -1.2357687 0.5865797 -2.882319 -1.2617642 -0.3266291
问 0.27463013 -0.52562046 -1.8148837 0.4101063 0.95463717 1.2329134 -1.2699034 -0.71645665 0.7028008 -1.8435223 1.037445 1.3149209 -2.2368596 -0.16483745 -0.75778776 0.52519894 -1.423399 -1.5386727 0.081501976 0.42779028
好好 -0.72365314 0.63118136 -1.3549726 1.0997136 -0.85296685 -3.2401679 -1.989304 2.3379638 0.10911839 -1.3014334 0.53264004 0.8589049 -0.98235816 0.5971743 0.10714251 -1.3972569 -2.2431479 -1.4151477 -1.2481482 -0.5065878
特别 -2.0789802 0.33599856 -0.51650023 0.59620124 -0.031698342 -0.51206934 -0.22093031 -0.39192092 2.3329997 -0.87651443 -0.23520124 -0.59301007 -1.4268652 -1.5818623 0.6229779 -1.9788103 0.47439694 -0.41851237 -2.7282915 1.2499782
微博 0.536728 1.1671313 -0.9317384 0.4471525 1.6857843 -0.23713434 -0.2778898 -1.2299505 2.182676 -0.6690208 0.29557276 0.86909693 -1.3030775 -0.9995824 0.36260152 2.2550142 0.18990271 0.055667467 2.080452 0.65525764
总是 -1.4419688 -0.35278255 -1.5295056 0.5156231 -0.5778137 -1.6068518 -0.21888179 0.5219084 -1.2852097 -0.3077944 -0.5720892 -0.77395177 -2.5585108 -0.6119378 -0.7573766 -0.26543882 0.13787052 0.835848 -2.3501115 0.690968
每次 -0.19128682 -0.5404619 -1.1819272 0.18076482 0.9915026 -0.56922245 -1.413951 0.5972657 0.4350746 -0.9781485 1.1243805 0.97993803 -2.1240146 -0.94925946 -0.429866 0.5297318 -0.26424512 0.8390813 0.1621979 -0.92308897
日 -0.3979344 1.4381285 1.022175 1.369277 1.0145886 -2.8841293 -0.41089195 -1.9176633 1.3226781 -2.0522115 -1.4419166 1.2534201 -1.1727715 -4.1422157 0.24141876 1.4888318 1.8950872 -0.63352257 1.4953766 -0.5934872
终于 0.25597143 0.7690913 -1.450179 2.025699 0.2690239 -0.55548215 -1.2094417 0.6690436 -0.19572945 0.1296626 -1.310723 0.6195465 -2.5146534 -0.4496513 0.86610675 0.43269625 0.650267 0.19373173 0.9359659 0.25208524
啊啊啊 0.124209955 -0.27242723 -0.33846137 2.6927478 0.21504933 -4.34911 -1.195366 0.6162239 2.5530493 -0.92849916 2.112084 1.8413395 -1.657058 -3.6948195 -0.8467633 0.79257935 0.72665375 -1.650708 -2.5594177 1.3910592
幸福 -1.7840601 0.87033844 -0.33222142 -0.09662027 0.076803654 -1.6327322 -0.3620187 0.08912258 0.66155934 -0.32352144 0.42131528 -0.5996721 -1.6101726 -1.9299947 0.50410664 -1.2976886 -2.0118575 -1.1048666 -1.679786 1.7181549
打 1.4076232 -0.58061564 -0.123355836 0.09964944 0.6192879 -1.0254909 -0.62012976 -2.0801876 -0.16769056 -1.6758573 0.17232612 1.6892617 -1.4168454 -0.65525216 -0.71804315 1.4162779 -0.75129414 -1.1971921 0.29176617 -0.25006804
小时 0.77531594 -0.85560864 -1.5067598 0.97516686 2.3315368 -2.0344892 0.41507006 -2.4163768 -1.5368524 -2.1927981 -0.1202506 1.3397695 -1.2197143 -3.3393316 -1.4797472 -0.36893782 0.6167315 -0.36362705 3.8823903 -0.29947367
还要 0.52001333 -0.3338332 -0.7737948 1.199701 0.5622738 -1.6451572 -1.464669 1.2267132 0.5822615 -1.5617179 -0.19456036 1.2667872 -1.6107843 0.40975606 0.14679195 -0.6948777 0.6983522 -1.124652 -0.797912 -0.9952555
以为 -1.3332038 -0.65316993 -1.4553072 -0.124991275 0.8508668 0.8936673 -0.20675929 -0.08803982 -0.43314534 0.06340533 0.47342855 1.2118127 -1.5658896 -1.6205047 0.96439296 0.0444534 0.2733351 -1.1792442 -0.10963356 1.0689764
狗 -0.9670108 0.9267431 -0.6451099 0.46834666 -0.25755787 -1.8472278 -1.6264855 -0.4868792 1.0698661 -1.9591917 0.5458253 0.37942174 0.12326054 -2.0140214 -0.04856257 -0.61806697 2.4275389 -1.1330233 2.1689126 0.68767864
两个 -1.0507902 0.84634835 0.07829045 0.5074991 0.3302493 -0.33267868 0.5097719 -1.9733151 0.23255968 -0.7608103 -1.643931 0.4822042 -3.1930525 -0.7254033 -0.8077591 -1.1370779 0.30362678 0.45034277 2.006499 -1.3976451
有人 -1.6722693 0.13922565 -3.2150998 0.5495441 0.2787283 -0.015103008 -1.1939439 0.9234058 0.12981682 -0.5958762 0.76661295 -0.17615215 -1.6088182 0.41425994 -0.10848605 0.0969502 -1.030163 -1.1201022 -0.08623985 0.16098589
该 -0.6330444 0.6296886 0.39466232 1.3370398 0.79125696 -0.19399825 -0.70181763 1.4464668 -0.88809836 -1.8052183 -0.15597375 -0.18773192 -1.330866 -0.20677158 -0.5628251 -0.59380084 -1.1647719 -0.7931685 -1.0302948 -0.28848657
呀 -0.20805252 -0.5562238 -0.69591093 1.5786024 0.42264253 0.09493005 -1.170123 -0.29022422 1.0067306 -0.35593346 0.2446761 1.0779464 -1.0027947 -0.83245945 -0.24232194 -0.48573014 0.21536459 -0.95867044 -0.7646312 1.0336589
带 1.2666366 -2.1169615 -2.166463 0.71797943 -1.4044102 -2.6595442 -0.7160982 -0.51099765 1.4301833 -0.97551227 -0.26566085 1.2392285 -0.61658543 -0.39541012 -1.8472688 0.3127427 -0.42410088 -1.7513468 0.6406216 0.76092666
中国 0.30086917 2.385436 1.2846807 -1.0439306 0.6668619 -1.0652639 1.690005 -0.30348262 1.3849831 -1.5840868 -0.88930315 -0.03335629 -1.5978268 -1.0162182 -0.18744096 1.6094359 -0.61762565 -1.8064238 1.2421675 0.46224982
有点 -2.2263768 -1.2021629 -0.43012103 1.2028909 0.6443411 -0.3551288 0.2708508 -0.4637379 0.9422121 -0.5979736 -0.19453868 0.45508793 -0.6695836 -1.284787 -0.08864488 0.23550937 0.68127865 -0.052409522 -3.16331 0.2218631
回家 0.4611687 -1.0470872 -2.4820526 0.4015551 -0.17197363 -0.9865434 -1.8362437 -0.17898852 1.5189888 -1.0353198 0.36228734 1.8153616 -1.4540957 -0.7435051 -0.47344872 -0.79103935 -0.47735894 -0.29984373 -0.30766025 -0.7914285
妈妈 -0.2824451 -0.6015007 -3.0760899 0.49825355 0.3767528 0.20664623 -2.0522296 0.63906455 1.5564528 -1.3231173 0.5846879 1.0985634 -1.6779649 -0.4015904 0.39942363 -1.1002429 -1.5492941 -0.8487094 0.31946367 1.6290637
孩子 -0.2374204 -0.37933677 -0.9588788 -0.6194403 0.19122289 -1.4803789 -0.6568344 0.85909027 0.4976175 -0.90182734 1.2375823 -0.52032447 -0.42021278 -0.2941093 -0.5110294 -1.0652065 -0.08258275 -1.1575572 0.51154417 1.2472687
应该 -1.0974004 0.8207074 0.68699765 0.4105625 0.13591069 0.4411849 -0.37576622 0.11029533 -0.11906403 -0.77754325 0.33617714 -0.4799003 -1.7062683 -0.6716812 0.08692862 -0.0031795923 -1.8499603 -1.3716836 -0.77539724 0.7581469
回来 0.3901748 -1.4713097 -2.1082864 0.8859646 0.72641635 -1.3081024 -2.0379705 0.30044192 0.74002206 -1.635837 0.50859094 1.8769734 -1.7405206 -1.0187373 -0.22092718 0.42804718 -0.75623673 -0.14650597 0.8937223 -0.9791
拿 1.5702273 -1.1779572 -2.391891 -0.027498683 0.09492503 -1.1100284 -0.3266395 -0.24951829 0.36543566 -1.7040069 0.443215 0.6281469 -1.3705814 -0.14317057 -2.066018 0.61870456 -0.9091908 -2.032394 0.45975304 0.004925086
天 -0.22847995 -0.25971827 -1.067796 0.58616275 0.84295 -0.28530762 -0.5379188 -0.4164665 0.06385173 0.42368692 -1.1190463 1.5673198 -0.80148256 -2.1371822 0.17500569 0.51621586 0.2184597 -0.024021141 0.49505946 0.01585244
早上 0.83216345 -0.7154035 -2.5610087 0.10291427 0.93380386 -2.5354617 -1.9708993 -1.0840948 1.8930041 -0.4681761 -0.70186585 0.8756832 -1.9177666 -1.5230246 1.2681823 -0.13771532 0.19895516 0.62610495 -0.052829724 -0.8256691
恐怖 -0.89506465 -0.80672 1.259521 -0.5438555 1.2290176 -1.5248158 1.0241864 -0.88253456 2.2678452 -0.64079124 0.7277733 0.56882447 -1.0312024 -2.3416584 0.99308574 0.6385413 -0.8871424 -0.37670323 -1.3730694 3.8238308
是不是 -0.8860697 0.50262195 -0.56530523 1.1302093 1.3684446 0.2574082 -0.95420766 -0.6828042 0.58492136 -1.0694072 0.83868176 0.26357055 -1.2185695 -0.14345922 0.6531831 0.67286575 -0.8205951 -1.148305 -0.91830117 0.54805154
将 0.11880886 1.4570899 0.0504386 0.28329128 -0.2180877 -1.4225742 0.7615752 1.3537631 -0.60038215 -1.4323382 -1.5630058 -0.029188043 -1.1155316 -1.4715217 -0.69654983 0.50127155 -1.398031 -1.4008857 0.37299103 -0.3949044
玩 -0.2913008 -1.2535988 -2.9366763 -0.40461108 -0.11281155 -0.61324835 -1.076632 -1.7014111 1.1735569 -0.51374644 0.67417216 0.07123249 -1.5051452 -0.8306279 -0.49724686 0.73331517 -1.1702148 -0.7837287 -0.09712786 0.6326529
需要 -0.59776115 0.5178417 0.8586289 0.84304273 0.38528454 -0.41660655 0.61989635 0.6996887 -1.2804614 -0.8465082 0.30914015 -0.4252862 -1.2196001 -0.6461681 -0.837917 -0.556558 -1.9550753 -1.6048946 -0.8934359 0.23940219
钱 0.29163268 -0.31211197 -0.37940538 0.5726258 1.9000525 -0.2604085 -0.7955432 -0.9525922 -0.13692161 -1.4263155 0.41684058 1.0715865 -1.0303371 -0.39337674 -0.5437888 -0.43781203 -0.84106433 -1.8062818 0.18017909 -0.23884138
晚安 -0.9711893 -0.42516002 -1.5752279 0.9119283 -0.7018341 -1.2727082 -0.20243476 0.7260073 1.7157263 -0.18991747 0.00637685 0.14553998 -0.72097933 -1.3680024 0.9189739 -1.4240698 -0.4751714 -0.16280569 -0.38423258 0.5769501
新 1.7534249 1.918375 -0.42406407 -0.6238206 0.2125897 -1.2961737 0.99063724 0.59195715 0.69449824 -1.0208895 -0.24264519 -0.35100698 -0.92505676 -1.6395261 -0.42067826 -0.7109539 -0.3754984 -0.7107788 1.4402878 -0.20288579
听 -0.25696552 -1.2776676 -2.029757 0.20425448 -0.5781937 -1.623354 -1.2050295 -0.6798043 1.1064336 -0.62185735 0.61676514 0.084261544 -0.8456176 0.055973623 -0.4381112 0.062109128 -2.153801 -1.64472 -0.5816153 0.53409505
原来 -0.7511523 -0.08930645 -0.6555687 -0.31422684 0.9445568 0.91968673 0.1272631 0.04740051 -0.3377039 -0.24149115 -0.12834917 -0.34932607 -2.3536408 -1.8092141 -0.008717926 0.16592862 0.3570425 -0.12359859 0.3174238 0.79681605
第一次 -0.28640172 -0.17264217 -1.2773217 0.47442648 0.43493432 -0.55918574 -0.43242222 0.19139527 1.4332914 -0.5273646 -0.02209024 0.17440426 -2.2779026 -0.6155656 1.1504751 0.6847483 1.086853 0.39709622 1.1929023 0.99205625
心 -1.3433808 0.73592126 -0.5505803 0.9659589 0.35031816 -1.5443583 -0.8210294 -0.13091129 -0.9643229 0.12208923 0.5467738 -0.32892507 -0.3753189 -1.4553003 -0.66223204 -0.9609557 0.18448381 -0.2291706 -2.0132287 0.16338362
一种 -1.4103526 1.2144034 1.3988025 -0.25797 -1.7107109 -0.15543221 0.552294 0.6271001 0.4768649 -0.052714854 -0.7972185 -1.4822087 -2.853524 -1.4386841 -0.2607521 -1.0164673 0.25363934 -0.9825647 -0.6377939 1.5189102
我要 0.8922822 0.3791 -0.6739907 0.9447694 0.28958046 -1.2353414 -1.7267956 0.8298327 0.5906233 -0.8338671 0.9625053 1.336857 -1.3596277 -0.03694537 0.23599055 -0.78737754 0.47751278 -1.0178382 -0.7074805 -0.1816312
告诉 -1.4428362 -0.074764095 -1.2244393 0.8477306 -0.32398006 0.13654622 -0.86486906 0.005968455 -0.42692775 -0.33459806 0.5541442 0.97580206 -2.133477 -0.50295085 -0.70859873 0.08970006 -1.6458558 -1.2196794 -0.47844598 0.74983335
写 1.5540154 -0.09499391 -1.6315349 0.20699517 0.53187776 -0.48602796 -1.0368962 -1.1616237 -1.0263865 -0.25428218 -0.87239414 1.1082668 -1.3433601 -1.6567862 -0.9288198 -0.41777453 -1.0571349 -1.2496052 0.3412025 -1.24279
问题 -0.21673492 1.5165721 1.0184598 -0.6823553 1.1108667 -0.13109401 0.20162363 -0.7104569 -0.95128345 -1.3495919 -0.5642758 -0.6344734 -1.6540743 -0.5830436 -0.9384211 0.15344004 -0.22952816 -1.0180237 -0.63777506 1.3306733
学校 0.992933 1.1706951 -0.7959647 -1.0102519 0.17280051 -0.7880165 0.040216707 -1.2732216 -0.06695864 -0.68290055 0.13758111 0.5867288 -0.9706695 -0.7788918 -0.30611843 1.158288 -0.24952169 -0.8455489 0.07379643 0.1493993
以 0.633205 1.8826761 0.87005424 -0.07372433 -0.0010205477 -1.5202764 1.602408 1.2948898 -0.038025033 -2.1069427 -1.289328 0.19235624 -1.2524889 -1.6273546 -1.268003 0.4078674 -0.5485598 -2.397276 -0.06619897 0.19064945
所有 -0.7246516 1.1605917 0.059400495 -0.44314048 -0.28693542 -1.5872512 0.8513503 0.94480646 0.27422372 -0.105500504 0.015912272 -0.67377937 -1.0070792 -1.1568547 -0.47054943 -1.1049855 -0.720687 -0.23661101 -1.2737007 -0.45871598
人生 -1.0517042 1.1874298 0.2745818 -0.21364851 -0.47148392 -1.4056836 0.82322484 1.0327207 -0.6063176 -0.27970082 -1.0319369 -0.9971395 -0.59805024 -2.40222 -0.09702514 -0.8385176 -0.8167636 -0.65188384 -0.4154157 0.9585095
不到 -0.74484044 -0.9785608 0.0889568 0.9748697 1.7456132 -0.80203134 -1.4723623 2.2403085 -0.047510147 -2.232305 0.19931133 1.529869 -2.6841671 -0.21157297 -0.84590423 -0.68436486 0.23961239 0.597011 0.2920152 -0.85965914
公司 1.1921606 1.2450922 -0.21108739 -0.7898244 0.86516 -0.77747124 0.34620842 -0.354874 -0.03239571 -1.1423662 -0.5839381 0.48293686 -0.8764752 -0.87558806 -0.5951033 0.4783743 -0.19150367 -1.3843864 0.8676599 0.08838313
尼玛 -0.37816563 1.140618 -0.5603017 0.23253122 1.3844078 -0.7327524 -0.80135757 -1.6237597 1.2359579 -1.7098372 0.8122426 1.1833282 -0.6154503 -1.300194 -0.4709178 0.70023054 0.47093824 -1.5293057 -0.39291853 -0.42214894
跑 1.4429672 -1.748552 -1.0816623 -0.27607715 0.0037019493 -1.7363741 -0.7123329 -0.3113474 0.30453354 -0.68666655 -0.66403234 1.8837838 -1.4498181 -0.8070317 -0.2372758 1.4959173 -0.7028778 -0.34019226 -0.2713291 -0.032787774
睡不着 -1.1692773 -1.8119004 -1.7596064 1.1160645 0.8229362 -1.1690874 -2.1626663 0.060122207 0.9425247 -0.33069915 0.18853302 1.6266099 -1.3509595 -2.4119155 0.75385547 0.2179757 -0.34026623 0.7439233 -2.4208887 -0.13901466
连 -0.37664312 -0.38405988 -0.17861983 -0.35893148 1.3576863 -0.21794948 0.14388712 0.108671315 0.100249976 -0.5227442 0.7719415 -0.6334369 -0.98415625 -1.3804563 -0.629923 0.18918584 -0.6882635 -0.46510383 0.4051261 -0.9906346
啥 -0.5514084 0.12536924 -0.8306676 1.3172251 1.5126798 1.1199374 -2.1241536 -0.53357536 0.29159757 -1.6451176 0.87992543 0.63558674 -2.199496 -0.65564954 -0.61617136 0.2748836 -0.4191859 -1.3553045 -0.06408014 0.006804835
嘛 -0.0007656109 1.5862142 -0.0064413436 1.6980071 0.7128403 0.46492797 -0.7445722 -0.02392058 0.47023156 -0.97117496 -0.44685566 1.5657071 -0.3570859 -0.6662648 0.41209102 -0.76725006 -0.97131735 -1.647871 0.1064432 0.61428213
过去 -1.3052549 -0.5866789 -1.2954507 1.1660069 -0.07062453 -1.5444357 -0.6242463 0.45384467 -0.75637966 0.014564683 -0.4734936 0.25419664 -1.663839 -1.2767879 0.06840015 0.09667094 -1.0166819 0.325039 0.05506965 -0.5239819
地方 -0.21383645 0.20307302 -0.05900218 -1.1530137 0.9962961 -0.9456427 -0.23078081 -0.79716396 -0.36577556 -0.54972035 0.053269178 -0.35071334 -1.1122366 -0.8555742 -0.6356499 -0.6468929 -1.2063109 -0.09414048 -0.014137822 1.3800641
恐惧 -2.3148887 -1.0035559 0.39478102 -1.1721442 -0.7514451 -2.4720902 0.8695652 2.4204988 0.0779334 -0.69661754 -1.3878722 -1.4912289 -2.1626804 -2.3713138 -0.84128505 0.14280032 -1.0963664 0.40203398 -2.7351112 2.6015363
想要 -0.68792605 0.37410143 -0.42197284 0.07539706 0.46110895 -0.61657006 0.051285997 0.46563658 -0.69813937 -0.27047655 0.29041559 -0.43503305 -1.1251976 -1.4741306 -0.0013671294 -1.2357961 -1.0719829 -0.6481903 -0.7222587 0.8185977
昨天 0.3647726 -0.25211105 -1.9113138 0.44452438 0.46625224 -0.021468243 -0.71848863 -0.3249842 0.9010953 -0.5145629 -0.07973301 0.6604662 -1.7434528 -1.2822851 0.33809283 -0.07986639 0.40324423 0.62912244 0.86592907 0.16704945
电话 0.53500706 -0.74392176 -1.5709307 -0.16300492 1.6466875 -1.110976 -0.54221004 -0.78045976 0.73416644 -2.2142293 0.40865922 0.7584711 -0.94166213 -0.33170158 -0.9215951 0.6831398 0.5856976 -0.62313753 1.070896 0.059051007
好像 -1.296282 -0.3831495 -1.4516375 0.47256887 0.62192446 0.15612327 -0.065432936 -0.064912215 0.1077758 -0.2516137 0.3460162 -0.44723052 -1.3857259 -1.3399242 0.468983 0.25346288 -0.28447846 0.0061172755 -0.8034226 0.79824466
永远 -1.4406315 0.096196614 -0.6056336 1.2999966 -0.5204403 -0.5996652 -0.47357526 2.041264 -0.8009343 -0.47789106 0.13071083 -1.0751414 -2.275425 -0.9870786 -0.13747613 -0.73065805 -1.2438459 -0.7059361 -0.35032246 0.5195978
于 -0.40767965 1.3592521 1.2459035 0.3285961 0.61727697 -1.9000142 1.390512 0.92647296 0.16178848 -1.1624205 -1.856129 -0.013300904 -1.5297165 -2.1595008 -0.3141238 1.052251 0.28632683 -1.0687854 0.4083761 0.42471
天天 -0.4167135 0.13236551 -1.5416249 0.8509425 0.8327254 -0.8406682 -1.2367116 -0.46180007 0.21314222 -1.2621053 1.395151 0.9957819 -1.421314 -0.6750155 0.08941292 -0.121447295 0.59038717 -0.7800457 -0.20937313 -1.0209116
老师 -0.050446976 0.86686313 -0.8347162 -0.30485323 0.92877674 -0.3036565 -0.5610462 0.0978443 0.48834693 -1.6682601 0.9399808 0.26803875 -0.2884068 -0.11027626 -0.22441219 0.681494 -0.049190342 -1.0407923 0.40988138 0.6595386
前 0.24883202 0.17089249 -1.0052831 0.45970547 0.38596648 -0.16601455 -0.725921 0.44337603 -0.44088024 -1.0599556 -0.9305936 1.5317819 -1.1448177 -1.6194247 0.034216568 1.1363009 0.708283 0.84877235 0.878904 -0.39750835
上班 0.50771356 -0.76331687 -1.6131911 0.353064 -0.5224702 -1.7631856 -1.7050688 -0.81872344 0.5100554 -0.8455289 0.36459538 1.5909327 -1.6627599 -0.42377162 0.60345 0.65949357 -1.3898178 -0.484666 -0.7337952 -0.32738888
快递 1.2855898 0.24943285 -1.5914922 -0.5686474 1.3755876 -0.7898237 -0.46107754 -1.0564349 0.7179838 -0.45181137 0.5050793 0.69670284 -1.3606489 -1.3420438 -0.5370193 0.72124755 0.4547622 -1.018716 1.2814914 -0.09359771
说话 -1.5677618 0.17162427 -0.8150261 0.24564421 -0.12757592 -0.8870085 -0.9008494 -0.73575383 0.053666428 -1.314537 0.4402826 -0.36687648 -1.2136647 0.2659679 -0.6797746 -0.2339666 -2.5713575 -0.9353143 -1.8661472 -0.06689384
努力 -0.7690044 0.30023587 -0.6245634 0.01106235 -1.2137526 -2.4856844 -0.98921645 2.1904159 -1.5148972 -0.8595095 -0.124100596 0.25614682 -1.3168758 -0.74645954 0.4536369 -1.5027092 -2.5676303 -1.4962299 -1.3312922 0.24233153
出 0.27026254 0.09965783 0.5642566 0.16503403 0.1976039 -0.45341885 1.6985103 0.43140933 0.89759827 -0.7634161 -0.5619252 0.21756305 -0.9458152 -0.74657255 -0.23982249 0.76313365 0.031083608 -0.9325932 0.43103582 -0.65048283
之 0.040597003 0.29797524 1.145614 0.08532931 -0.41162992 -1.8740793 1.3424284 1.2905709 0.39818013 -1.1034522 -1.4814205 -0.038017888 -0.9017351 -1.0380322 -0.31211093 0.8491378 -0.17057207 -0.70914024 0.1768517 0.35173836
重要 -0.72484744 1.0509479 1.6600558 -0.51462233 0.58187985 -1.1694728 0.79467934 -0.51525414 0.49701267 -0.40358794 0.69651234 -1.0578496 -1.6364485 -1.6824006 -0.2133914 -1.005475 -2.0941694 -1.9430779 -1.9082985 1.2071654
话 -1.6509336 0.036994863 -2.226449 0.29170796 1.1022412 1.1475793 -0.5300539 -0.34382865 0.23802443 -1.9496045 0.7087277 -0.14327422 -0.5641765 -0.5972288 -0.41791415 -1.5710698 -1.9671736 -2.0633268 0.50963724 0.9859323
之后 0.1822996 -0.43895915 -1.2646335 0.5549123 0.116873175 -0.5693857 -0.5677128 0.81685305 -0.3454665 -0.8194287 -0.49308723 0.93060076 -1.238293 -1.121054 0.35731304 -0.48676315 -0.5244117 0.39395502 0.24916826 -0.7598627
一些 -1.1265523 0.53705055 0.47276917 -0.7559719 -0.4989773 -1.050776 1.0010439 0.5109294 0.33880788 -0.96025735 0.3547542 -0.99811137 -2.0040855 -0.16285324 -0.05951388 -0.768565 -0.67726225 -0.81152153 -1.1212907 0.44452852
以前 -1.2883853 -0.41677517 -0.9314671 0.6326564 0.72050726 0.3368932 -0.7417376 0.20404167 -0.12265824 -0.21428005 -0.08903341 0.19994943 -2.0194545 -0.66560566 0.37273014 -0.7724125 -0.101323806 -0.27482146 -0.3887592 0.660648
这是 -0.23194829 0.18904006 -0.10003276 0.40299562 0.9377438 -0.1911604 0.29281315 -0.70250404 1.0383041 -0.3783791 1.031855 -0.14471099 -0.69642234 -0.66614044 -0.83117324 0.7050931 0.43958998 -0.72450954 0.088265695 0.5469593
只能 -0.68923724 0.012858182 -0.6045703 0.9623405 -0.38751125 -0.43000215 -0.73622614 1.0819176 -0.9676503 -0.79428893 0.038615167 0.019161794 -1.1015567 -0.59817225 -0.39702287 -0.74442315 0.11223191 -1.0162805 -0.8157496 -0.16094081
之前 -0.58538276 -0.059750192 -1.2373453 -0.08957413 0.89907444 0.32488474 -0.58383995 0.6990767 -0.9458554 -0.51352656 -0.24713379 0.27764538 -2.2613032 -0.26101542 -0.012232934 0.26162323 -0.20793767 0.18654604 -0.08812153 0.42242256
越来越 -1.2740852 0.029634451 0.5312359 1.0976888 0.46404016 -0.75466275 0.011171108 -0.3154543 1.4000772 0.16876546 -1.1126649 -1.0962138 -0.8545754 -0.37908098 -0.37651148 -1.1552372 0.11815119 -1.4206287 -1.5736408 0.4902687
日子 -1.6870775 1.3273869 -1.6853447 -0.19108959 0.9107502 -1.8133286 -1.2972649 -0.09447096 -0.59447956 0.13903843 -0.19218627 0.06031808 -0.4489276 -1.9718341 0.060574096 -1.629576 -0.5615141 0.29417574 -1.2547202 0.13871346
卧槽 -1.3084278 -0.45839208 -0.5775986 -0.30819038 1.4204996 -0.35753238 -0.23664102 -1.229145 1.7807796 -1.118629 0.41416073 0.78953296 -1.3608664 -0.9842466 -0.49807453 1.9896345 0.29180244 -0.6641466 -0.8558963 1.435378
几天 -1.1140777 1.2616469 -1.6001463 0.88974327 0.7321861 0.3529323 -2.346389 -0.38924864 0.26151314 0.24023539 -1.1555122 2.0641806 -0.57837766 -2.2586045 0.090237916 0.3675294 -0.02428932 0.38677663 0.22637615 0.47846237
已 0.024807395 0.8389402 0.25151786 0.17196812 -0.09114136 -1.0879785 0.94541675 1.1335186 -0.5438663 -0.10115805 -1.1568106 -0.1079292 -1.4752153 -1.3862325 -0.27677938 1.3377291 0.7606042 -0.3180856 -0.068819836 0.034472212
拍 1.2951164 -1.1806016 -0.7165386 -0.9048234 -0.15484656 -0.9911764 -0.13138488 -0.3153718 2.2595146 -0.666184 -0.39543805 1.204974 -1.0373919 -1.1237892 0.74581057 1.8994943 -0.59499055 -1.1025671 1.0166966 0.86551875
遇到 -1.3195226 0.2915013 -0.3724738 -0.60783225 0.6102742 -2.0416384 1.1233453 -0.59582484 0.5145244 -0.8749405 1.0803258 -0.6784035 -0.63299036 -0.93290675 -0.17825887 -0.4230808 -0.84976315 0.12591992 -0.04330887 0.81571114
号 0.66102296 0.47270244 0.34566393 -0.012361071 1.595937 -0.5382203 0.108739376 -1.1723009 0.6906207 -1.3318659 -1.1808534 1.5698116 -1.0762689 -2.0658612 0.3598124 1.5061344 0.62760043 -0.500612 2.2212422 -0.11517832
请 0.29400033 0.44871408 -0.5077974 0.81030554 0.022805544 -0.4300377 -0.5093439 0.8413839 -0.26594052 -1.187104 0.13457084 0.8088565 -1.0048968 0.07631655 -0.67771745 0.10129225 -0.46535248 -0.79559445 0.46802002 -0.122838296
身边 -2.0908809 1.0388362 -1.9909005 -0.36475033 -0.8855687 -1.0043914 0.19445905 -0.12583654 -0.8443956 0.10632933 0.44233432 -1.1297987 -2.8955986 -1.0775638 -0.16159032 0.07285832 -2.1173391 0.05024723 -0.055338588 0.68379116
不开心 -0.6340412 0.8049215 -1.4093083 1.7122512 0.3172756 -1.5662502 -1.1805739 -0.20886481 0.78259057 -0.5397929 0.92745894 0.22693391 -0.84562534 -1.7094822 0.3729543 -1.4872903 0.4106989 -1.250218 -2.238295 0.712576
每 -0.56438744 1.1084589 -1.3242731 0.62989837 -0.7521979 -2.1471894 0.25675645 0.56918174 -0.018531406 -0.380768 1.1153021 -1.2456155 -2.089774 -2.478611 -0.7835795 -1.528579 -0.8998506 1.0449758 1.2611136 0.66917944
醉 -1.1914687 0.41837674 0.84426785 0.95455295 0.9559127 1.1671389 -1.4549379 -0.5422 0.11667435 -0.3790286 1.0773778 -0.065625675 -0.97213954 -2.6313512 0.4831826 -0.24757971 0.1041317 -2.16154 0.07985918 0.8092956
哈哈哈 -0.41092068 -0.46993524 -1.746664 1.4798646 -0.47820532 -1.3642802 -0.7772929 0.0002923805 2.7150288 -0.62777275 0.4121738 0.5409874 -1.3386457 -1.3448907 1.2754662 -0.13294768 -0.66957873 -2.0498562 0.85216886 1.2279932
选择 -0.45952415 0.6116072 0.56591094 0.0040629343 -0.19265075 -1.2377393 0.13038278 1.6692833 -1.1325213 -0.7932573 -0.43183964 -0.6691173 -1.0552603 -0.7960516 -0.6667965 -0.7384691 -1.2551125 -0.70481586 -1.4784033 0.79708713
看着 -1.207662 -0.61791945 -1.7436968 -0.63240314 0.22171807 -0.24241856 0.2521714 0.10145598 0.88436145 -0.23569298 0.046047103 0.18556719 -1.1273913 -1.1574932 -0.21342053 0.20246254 0.0063326107 0.28180337 -0.38401228 -0.020156214
怕 -1.2208537 -0.6598665 0.31128058 1.1608509 0.57003576 -0.01054416 -0.6404819 0.62166584 0.14916371 -0.86671317 0.27411783 0.11509383 -1.3014823 -0.86043423 -0.25796723 -0.1288171 -1.0742891 0.119182535 -1.5824142 0.66086835
直接 0.010521753 -0.07898155 -0.21557312 -0.27542883 0.9731582 -0.751379 -0.13388607 -0.22400679 0.13031928 -1.5853226 -0.11886081 0.85998917 -0.881806 0.1599475 -0.85213363 1.0598948 0.030454678 -0.69592804 -0.39283347 -0.42607856
看看 -0.17084245 -0.6959764 -0.8511176 -0.31041175 -0.4796404 -1.4338661 -0.47961238 0.0755632 0.8260164 -0.70274323 -0.43374348 1.301673 -1.0995741 -0.18504092 -0.07916795 0.6755679 -1.0272204 -0.3000603 -1.0541406 0.6354712
一句 -1.4153146 0.23788889 -2.2422383 -0.34591794 0.2657223 0.9975271 -1.0991007 -0.8481654 0.6293575 -1.9328425 -0.30236962 0.31302133 -1.4343276 0.6941676 -0.12037777 -1.0839833 -1.0517676 -1.4028766 0.3673836 1.2907137
岁 -0.34776923 -0.259185 -1.1718825 0.1046197 0.48379213 -0.4529348 -0.08245757 -0.5671175 1.1115563 -0.11957458 -1.2683637 0.7361102 -0.5705858 -1.6512809 0.81960624 0.31043178 -1.0313642 -0.42535606 1.1243229 0.5063798
每个 -3.2358215 1.8779407 1.0918539 0.43836677 0.0311979 -0.9934347 0.97659624 -0.8060729 0.049216084 -0.18956651 -0.1994924 -0.88033617 -2.4735467 -1.7285366 -0.5837654 -0.47276002 -0.54795986 0.34612986 1.5099499 -1.613317
家 0.07532 0.03570185 -1.3433574 -0.042363003 0.3551328 -0.6290838 -0.17279886 -0.45904794 0.5763106 -0.22908844 -0.28473344 0.54463583 -0.8863316 -0.81204176 0.3237444 0.46266562 -0.2217498 -0.026091577 0.5911199 -0.29263863
老 -0.61975986 0.26290536 -0.10199841 -0.0148161715 0.11692234 -0.21765482 0.01388222 -0.7095255 0.6129994 -0.42755118 0.48286313 0.17450337 -0.86321795 -0.8992383 0.3099306 0.22736245 -0.20032531 -0.95445085 -0.41298017 0.6659803
发生 -1.210038 0.6820903 -0.3379231 -0.3753938 0.27713424 -0.5603038 0.37497064 0.4065501 -0.5441712 -0.30999416 0.6530149 -0.28370026 -1.7574283 -0.8100233 0.005058453 0.051647976 -1.6706951 -0.11243974 -1.1936648 0.5984778
吃饭 -0.14326867 -0.23001398 -1.8820534 0.36646503 0.37159175 -1.1894517 -1.6132592 -0.44765195 0.44969738 -0.5522517 0.69513243 1.2855158 -1.7488381 -0.030460414 0.5851963 -0.21699902 -1.2947693 -0.84815073 -0.6396504 -0.5993163
眼睛 -0.35906315 -0.858933 -1.5182016 0.7107452 0.87271655 -0.385272 -1.114677 -0.3155517 -0.34757325 -0.20891362 -0.18131089 0.659153 -1.2221259 -1.6553522 -0.949305 -0.03011231 0.59207785 0.84847075 -1.6613333 0.35361484
继续 0.18022445 -0.07833314 -0.70663184 1.0753355 -1.0497768 -1.299658 -1.064444 1.5692888 0.28743848 -1.1286716 -0.31214648 0.94502264 -1.0133909 0.50761443 0.8117641 0.020593535 -0.20682177 -0.7678436 -0.18394138 -0.47903687
明明 -0.5621993 -0.021429703 -0.3420033 0.36650634 0.2239914 0.19098145 -0.8298796 -0.28902677 -0.15743786 -0.023886926 -0.23569763 0.024232736 -2.005833 -0.92867243 -0.045482542 -0.34572315 0.4252842 -0.39404538 -0.7289864 0.62424636
昨晚 0.25296673 -1.6344031 -0.9933096 0.059906725 0.7757442 -0.20391582 -0.8633629 0.7783476 1.4061815 -0.9393579 0.49186015 1.1179565 -1.6165253 -1.0746057 0.29674113 0.22382294 0.1404436 1.0547198 -0.31238163 0.78299093
疯 0.5929014 -0.31957126 -1.0479043 0.32635373 -0.34888017 -1.0698569 -1.7890049 -0.48781678 0.33574888 0.60238785 0.8267667 1.5753595 -1.5714339 -2.016708 -0.35789987 -0.26797366 0.69222456 -0.69624084 -1.5457621 -0.06897327
越 -1.3082187 -1.0535909 -0.36767527 1.0008229 0.43509808 -0.43189707 -0.59135467 1.0512825 0.9573997 -1.1406848 -0.5850337 0.24751447 -1.6276895 -0.19241273 0.75043017 -1.9915086 -1.8326793 -1.211772 -2.207654 -0.058065806
整个 -2.1228447 -0.04438036 -0.89512426 0.03108915 0.16806649 -1.5054357 0.822103 -1.3984463 0.6605363 0.4589587 0.38514894 -0.74290425 -2.3046033 -0.8941714 -1.6294497 0.7568466 -0.3601344 0.5633937 -1.2022458 -1.7420669
几个 -1.0547588 0.62211007 0.3534491 0.9270877 0.6214945 -0.42974192 -0.5559907 -2.0838313 0.21589413 -0.9555421 -1.4365983 0.9018976 -2.6421103 -1.1749789 -0.19292144 0.26187474 0.55836505 0.26999465 1.9418467 -1.0503634
美好 -1.0746237 0.55041033 -0.6744898 0.3259712 -0.7479081 -1.9772911 0.58569986 0.7329533 0.31186494 0.2786566 0.17325655 -1.5767789 -1.4248718 -3.0389087 0.65771 -1.3786942 -1.9839207 -0.3439083 -1.3171494 1.3128167
冬天 -0.022647658 0.007210124 -1.620387 0.11074228 0.38466585 -0.29481977 -0.3595849 -0.46697867 0.2553453 0.9107058 -0.6590325 0.012644055 -1.2081634 -2.2326903 -0.016441276 -1.1207927 0.3892914 -0.0010347671 -0.08415668 0.6770255
刚 0.71637833 -0.8481343 -2.279752 0.30018267 0.4637999 -0.513133 -0.82084376 -0.12333795 0.5408141 -1.0030859 -0.5885973 0.81210124 -2.0522022 -0.7359561 0.03780968 0.21540199 0.34272265 0.47381118 0.75497603 -0.443317
准备 1.3482215 -0.6404792 -1.7733976 0.12115865 -0.12610105 -1.1897389 -0.7089794 1.6777959 -0.74246883 -1.0041877 -0.935535 1.7826122 -1.2101648 -0.6770405 -0.17266898 -0.63274515 -0.70862436 0.6767236 -0.6907507 -0.4630072
噩梦 -0.8498267 -1.8915939 0.2870523 -0.93966454 0.8833903 -1.0851699 -0.9103209 1.2991858 0.3654949 -1.3524522 0.49515647 -0.19808875 -3.086361 -2.3797488 -0.14284258 -1.5981498 -0.09272322 1.5787265 -0.92230517 1.4298664
梦 -0.3470858 -1.24572 -0.11439453 -0.83361584 1.0115852 -1.2940805 -0.58278006 0.15160976 0.5676578 -0.033636883 0.23788849 -0.047150526 -1.6879826 -2.2112005 0.94592184 -1.2256176 -0.5860664 1.171685 -0.6611602 1.5663751
够 -1.299651 1.305736 0.10044815 1.2980648 1.1004249 -0.6706256 -1.4652916 -1.5209998 1.6339118 -0.76349086 1.2519379 -0.26171038 -0.42240053 -2.4204435 0.6027554 -1.0225121 0.42240956 -2.087029 -0.020975653 1.1468457
懂 -1.9223133 0.40011302 0.9666278 1.8894906 0.07620882 0.023798086 -0.11430884 -0.6322863 -0.2712065 -0.4646971 1.093579 -0.8089962 -1.5780618 -1.1674334 -0.3324537 0.17246324 -2.775134 -1.8627976 -1.7970668 0.1144562
笑 -0.75349665 -0.77489805 -2.206314 0.35791767 -0.09859726 -0.971043 -1.7817194 -0.70074135 0.56350964 -0.28602567 0.34582096 0.36466783 -0.43401012 -1.0663353 0.07021963 0.019782396 -0.9514196 -0.5881134 -0.65517014 0.3313007
衣服 1.2196012 0.7129949 -1.1835285 0.31791374 1.3299263 0.05685915 -1.0190701 -0.6386543 1.0283554 -0.44360504 0.19367829 0.24923202 -1.2196465 -0.6341407 -0.04687042 -1.0459709 -0.08706088 -1.238824 0.5370042 -0.3336237
陪 -0.5103386 -0.96333194 -3.0878825 0.092112616 -1.1073179 -1.1086155 -1.3541439 0.31460786 0.10222847 -0.50023717 0.8064624 0.14280868 -1.986446 -0.23590349 -0.20162266 -0.9213365 -1.6184977 -1.0699341 -0.067587614 0.29188132
样子 -1.1789652 0.10306552 -0.49108776 -0.07612014 0.6933248 -0.53056717 -0.8565777 -0.03244521 0.19185568 0.116682746 0.26180357 -0.41416907 -0.5712452 -1.3091668 -0.09945944 -0.41312653 -0.06324229 -0.129891 -1.0394807 1.073934
疼 -0.80740976 -0.5733147 -1.4126077 0.81542295 0.9576832 -0.74381375 -1.6251419 -0.7866081 -0.23614813 -0.57192063 0.42057213 0.86731625 -0.605818 -1.4516493 -0.42434138 -0.070997976 0.18017685 -0.26312688 -2.2215421 0.11122029
总 -1.6275734 0.13322182 -0.33047664 0.021501686 0.03544128 -0.45595935 0.13223903 0.52146935 -0.49560046 -0.38351688 -0.70687354 -1.0724573 -2.0872831 0.14436324 -0.43387663 -0.08773591 -0.1874492 -0.48345497 -1.1922022 0.6224629
坐 0.31086773 -1.7029088 -2.0247886 -0.98797977 0.5073898 -1.6272464 -0.46658614 -1.1059129 1.0488039 -0.89904094 0.040784396 0.8642716 -1.5088344 -0.1772075 -0.5998395 1.3332397 -0.13540256 -0.30804682 0.18872076 -0.27857718
无法 -1.2397842 0.3001184 0.63638234 0.46919373 0.10982414 -1.3333505 0.8544616 2.3227258 -1.1105753 -0.5019885 -0.63614374 -0.65485585 -0.8859208 -1.2773881 -0.46150193 -0.1901293 -0.81842893 -0.447968 -1.1829954 0.0519725
生气 -0.88857156 0.16521873 -0.7482888 0.84064364 0.45306355 -0.5653067 -0.77001345 -0.37547204 0.48530617 -0.77465457 0.8971288 0.58866334 -0.6108093 -1.1479204 0.42924207 -0.15173756 -1.1595768 -0.3425202 -1.4306842 0.55985403
快乐 -1.3117259 0.6902569 -0.36035648 0.44150615 -0.91106176 -1.4756913 -0.1256539 0.73915136 0.4077383 0.18293484 -0.27498266 -0.79121155 -1.3253485 -1.8798 0.34126318 -1.1400117 -1.7617445 -0.92069894 -0.8161401 0.96949375
不用 -0.727902 -0.95753664 -0.3422041 1.0645176 0.7355597 -0.5308373 -1.0698012 1.4165121 0.5798906 -1.6287882 0.67858523 0.87878346 -0.38924658 -0.20527016 0.28089097 -0.0509303 -0.57853603 -0.28921735 -0.9947834 -0.4045671
喝 0.5494421 -0.98273814 -1.764194 1.09931 -0.037690412 -0.33435702 -0.97028136 -0.65221846 0.99633795 0.0650861 -0.6840969 0.81028855 -0.9852712 -0.55329746 0.33804584 -0.782874 -1.1742864 -1.0623846 0.02081394 -0.18757759
丢 -0.060946528 -1.2275732 -2.3196118 1.1668078 1.9037508 -0.9563762 -1.3136555 -1.5664921 -0.31753337 -1.7178211 1.0359674 1.4288273 -1.7736402 -1.6330873 -1.2933793 0.52258205 0.52817655 -0.034743845 -0.50391644 -1.1874503
老子 -0.02403324 0.36911485 -0.5789194 0.48517197 0.8397124 -0.9635395 -1.3942369 -0.5535434 0.38790306 -1.8144634 1.2257912 1.0026418 -0.9706024 -0.35052726 -0.005782541 0.20471835 -0.1637854 -1.5406286 -0.61817825 -0.4298092
一年 -0.79433686 0.3920487 -0.3250217 0.7725376 1.2189236 -0.16334735 -0.7295827 -0.33212414 -0.001284998 -0.11206765 -1.206087 0.59478056 -0.9167586 -1.7946211 0.06999483 -0.3543034 -0.1441336 -0.1840426 0.7506143 -0.11337811
难过 -1.9383208 0.028101437 -0.8028983 1.0937216 0.5987044 -0.8110417 -0.5544157 -0.07764123 0.26948732 -0.35477626 0.23114671 0.13740622 -0.94820714 -1.5345453 0.4432669 -0.9593563 -1.2793627 0.0065947934 -2.3600855 1.6683502
变成 -1.1241677 0.063211426 -0.31205377 0.13804306 -0.025884995 -1.3302836 0.7426144 0.6301583 0.18748869 0.4351387 -0.2920075 -0.7512873 -1.0113753 -1.2435826 -0.16173284 -0.45649007 -0.5401367 0.16824675 -0.36655864 -0.11803107
内心 -0.80152106 0.57877076 0.54225683 -0.63986677 -0.14363605 -1.3368655 -0.14085922 0.8711226 -0.6176324 0.13189423 -0.24682583 -0.74739 -0.97267616 -1.3009945 -0.34442022 -0.23168066 0.26793876 0.03507295 -1.721182 1.270959
出现 -0.85788685 0.50378215 -0.5493769 -0.5165733 0.44434533 -0.16947824 0.874442 -0.5614434 -0.44029245 -0.5138116 -0.634991 -0.19956538 -1.1575979 -1.5960513 -0.4828581 0.73157823 -0.94045365 0.36358356 -0.08873925 -0.08287924
男人 -0.63758826 0.60789067 0.19111277 -0.45895913 0.46694297 -0.9408022 0.12762633 -0.5121081 1.0468374 -0.6470059 1.1862975 -1.1222652 -0.4930126 -1.1359198 -0.57908714 -1.0741777 -0.3932717 -1.2029047 -0.31827316 1.279914
女人 -0.98693943 1.1504071 0.6576161 -0.05943607 0.55420256 -0.97871476 0.2701043 0.008841138 -0.00651574 -1.102479 1.2634097 -0.6253411 -0.25288144 -0.50289184 -0.13844907 -1.0656302 -0.19775169 -1.3129752 -0.34031922 1.1557719
开 0.8417447 -0.3258614 -0.47041434 0.5235044 0.71502393 -0.4830921 -0.77038 -1.1214523 -0.24037734 -0.5279136 -0.05085192 0.9155071 -1.0040591 -0.56777847 -0.50742304 0.5061599 -0.25284475 -0.9242571 0.13173343 -0.21934977
下午 1.2457596 -0.7297988 -1.8012289 0.16653001 0.72098655 -1.5251849 -1.2007457 -0.8609358 0.76474255 -1.114813 -0.506545 1.1489654 -0.8308881 -1.2808801 -0.032442156 0.2564108 -0.19525084 0.5893232 0.2627483 -0.7239584
失眠 -0.8133655 -0.10073228 -1.0144936 1.0151887 0.8350518 -1.4467671 -1.1774534 -0.75285625 -0.17828812 -0.2469122 -0.2246985 0.40469274 -1.0183623 -2.3297586 0.24276473 0.28042123 0.24176463 0.38313368 -2.3163123 -0.067924924
不行 -0.3043534 -0.89243215 -0.8437553 1.0829842 0.4606509 -0.5679337 -1.5549979 -0.100408465 0.048573967 -0.3166208 0.66462904 0.9997127 -0.5223999 -1.5420413 -0.16083516 0.015947757 -0.64041424 -0.45118693 -1.2679282 -0.2938955
刚刚 0.32016298 -0.80565864 -1.6015441 0.29439545 0.64290273 -0.5828345 -0.4860079 -0.27318928 0.5842866 -0.9115039 -0.008989731 1.1184362 -1.7048978 -0.73066854 0.58837354 1.1834456 -0.03401643 0.742286 0.80745333 0.2526692
路 -0.60279614 -0.3192137 -0.5637778 -0.053587586 -0.21635641 -1.6899403 0.010672288 1.4533218 -0.03177395 0.11637045 -0.35903257 -0.14103036 -1.1107948 -0.3734748 -0.47078517 0.79955566 -0.12220451 -0.17920972 -0.22442016 0.014999872
中午 0.8347352 -0.6898731 -1.91594 0.6008978 0.53761256 -1.4189235 -1.7513832 -0.56752735 1.3806232 -0.5054574 -0.08219095 1.0277039 -1.2615381 -0.8932698 0.77536905 -0.12613173 -0.1763846 -0.025445873 -0.12110067 -0.5646714
生日快乐 -0.690847 0.38938805 -2.1280756 1.0295503 -0.9917875 -1.0713819 -0.22950315 0.84154874 2.4212499 -0.2316914 -0.038066655 0.1651383 -0.98898387 -1.6650275 1.305575 -0.8786731 -0.87387896 -1.7821656 1.2482996 0.89349675
不敢 -0.77551407 -1.1200845 -0.85102046 0.29565713 0.8065563 -0.25067702 -0.64246184 1.7669872 -0.4201342 -1.3256587 0.7619671 0.6631768 -1.5521786 -0.7640907 0.12417111 -0.38302448 -1.0085331 0.1561318 -1.0539597 0.08341511
吓死 0.3377111 -0.97662914 -0.7179104 1.0001383 0.5950386 -1.2448076 -1.0304612 -0.95845646 2.6887822 -0.7062489 0.8975944 1.9988474 -0.77452606 -1.6930019 0.16213183 1.5168242 1.1400166 0.072338104 -1.2769608 1.7062875
再也 -0.65731907 -0.4344517 -0.97125673 1.9385138 -1.1916454 -1.055997 -1.6565033 -0.3386365 -0.6718714 -0.48249814 -0.22766855 0.60995054 -2.1323638 0.11491187 -0.5966808 -0.7656767 -1.0432477 -0.8012193 -1.5046748 -0.24498187
想到 0.17320012 -0.56817496 -0.5809932 -0.33996728 0.5724937 -1.1642822 -0.9999452 -0.6746708 0.8252354 -0.50118095 -0.4778525 0.15119688 -0.57061654 -1.1212674 -0.7873729 0.13901626 -1.2656137 0.6936038 -0.37071812 -0.24815722
本来 -0.659808 0.04623211 -0.8405756 0.2797068 0.08956279 0.13754717 -0.7868988 -0.6482576 0.59750867 -0.7450188 -0.16939485 0.17504387 -0.58656216 -1.0035431 0.050178323 -0.5549245 -0.6702515 -0.24213903 -0.8003396 -0.23085564
回 0.5440499 0.021595487 -0.5105394 0.16279593 0.3251744 -0.53203523 -0.058528744 0.2763999 0.2586676 -1.0179231 -0.05959791 1.5713542 -0.84654945 -0.6628028 -0.60033244 0.91923267 0.2874255 -0.11215943 0.1344045 -0.77826047
电影 0.11028679 -0.28948623 -0.1975505 -0.3951947 0.12868008 -0.069249436 0.18520266 0.9763977 1.2145092 -0.5726933 -0.24760625 0.8967918 -1.216665 -1.1754919 1.2484598 -0.1307699 -0.7841362 0.14970648 0.43090174 0.62475854
成 0.016627986 0.40876588 0.3108293 -0.32174778 0.62128717 -0.35466126 0.533722 -0.22569469 0.5099938 -0.7262009 0.23071471 0.0042650434 -0.46700144 -1.1584319 -0.28937042 0.34777144 0.235111 -0.5162312 0.30746877 -0.13716419
容易 -0.8011812 -0.57490325 0.9688002 0.8988489 0.008061512 -0.22180182 -0.17993972 -0.87369096 0.28586924 0.19339974 0.483479 -0.5124381 -0.88226944 -1.3697679 -0.10698829 -0.45983577 -1.7303538 -1.2927521 -1.9198488 0.8769586
打电话 0.35042903 -0.53012204 -1.8206238 0.6309683 0.80095035 -0.42082843 -1.5273484 -0.51303345 0.22797379 -1.807638 0.5552928 1.0623798 -1.5853964 -0.12153 -0.15667015 0.022072932 -1.2354867 -0.6719158 1.09768 0.32210645
生日 -0.2284758 1.1280615 -1.5418104 0.74736935 -0.48351854 -0.2828175 -0.9241542 -0.31230047 1.1447185 -0.15734369 -0.52917314 0.4123046 -0.92093265 -1.7674085 1.2639996 -0.8647905 -0.75730544 -0.5791285 2.1939433 0.6910206
忙 0.35211033 -0.8019771 -0.9068707 0.18744382 0.26725385 -1.521513 -1.5375307 -0.6809066 -0.041494586 0.5975008 -0.51737255 1.2651142 -0.7107776 -1.5713887 0.9335293 0.4931865 -1.4101273 -0.6187135 0.05994889 -0.002726983
长 0.060153775 -0.10032438 0.0025710107 0.8697629 0.65922636 -0.24768342 0.08261645 -0.6759165 0.4530333 -0.23790723 -0.5587577 0.12249554 -0.45612466 -1.4014044 -0.08849478 0.2937889 0.02675037 -0.4043855 -0.2703845 0.47099173
搞 0.6672595 -0.82188475 -0.28203768 -0.003229061 0.8576143 -1.179725 -1.6661726 -0.4502772 0.3369208 -0.23889859 -0.10045137 0.9340959 -1.1235706 -0.48508978 -0.06664952 0.7875264 -0.19108573 -1.31695 -1.5111225 0.06712408
大学 -0.28833672 1.2736973 -0.13696685 -0.9084859 0.36451572 -0.6946167 1.1866488 0.11904772 -0.06148374 -0.40028566 -1.145014 -0.31244364 -1.0795641 -1.5622272 0.16036448 0.43713057 -0.06236893 -0.07228921 0.46004137 0.03204868
干 -0.03578084 0.19594745 -0.5503007 1.2756078 0.8338241 0.28524604 -1.3453212 -0.670696 -0.71427286 -0.75515854 0.26537853 0.61786556 -1.2862247 -0.7278596 -0.5161966 -0.107875004 -1.1491051 -1.2799902 -0.17254679 -0.21306387
下去 -0.84530944 -0.4935643 -1.3083783 0.76178247 -0.66253793 -0.97783154 -1.4536145 1.0444711 -0.052613113 -0.37723374 0.29871356 0.30467188 -1.4484432 0.046166886 -0.07033636 0.11349466 -1.0312704 -1.1971627 -1.1406403 -0.2353826
本 0.69313043 0.4010222 -0.72116435 0.71218354 -0.06899363 -1.063167 0.3053516 0.1347908 1.3860757 -0.58682233 -0.18592139 0.8593583 0.09476064 -0.8797075 -0.016815288 0.4943746 0.53999233 -0.5033521 -0.4585183 0.6499522
其 0.27202207 1.2146072 0.7298987 -0.005233273 0.053292524 -1.1285945 0.80778176 1.1347457 -0.27093214 -1.3647434 -1.3031096 -0.13629743 -1.4356616 -0.9612084 -0.62484545 1.1352075 -0.5614416 -1.6265337 0.024047362 0.22660704
饿 -0.27041277 -0.9746959 -1.3855458 1.652735 1.0285612 -0.71272075 -2.2034402 -0.58361 0.58309734 -0.20247367 -0.28789046 1.6841025 -1.2116139 -2.2052295 0.14186154 -0.3636445 -0.32406974 -0.779465 -2.0811164 0.66851974
靠 -0.16405658 0.2552154 -0.33530438 0.37278572 0.20314403 -1.0001776 -1.1041665 -0.6389071 0.5631864 -0.31017116 1.0308685 0.12297408 -0.10292027 -0.25269592 -0.25092977 0.060999755 0.29991478 -1.5944372 -0.71823645 -0.0018565282
吓 1.1026046 -2.5529675 -0.7215965 -0.6919894 1.2281836 -2.037234 -2.2850657 -0.75431937 1.1836457 -0.54812765 -0.26743776 1.0567632 -1.250763 -1.0153204 -0.35776293 1.9473369 -0.49895725 -0.8552241 -2.097117 1.1132772
就要 0.20304766 -0.07932182 -0.5467151 0.9158943 -0.17261392 -1.352392 -0.6808613 0.48868307 0.40346584 -0.80908835 -0.53056824 1.048431 -1.3508507 -0.18030216 0.14196979 -0.32052305 0.7297966 0.01562845 0.29220477 -0.16257936
好多 -1.061763 0.12660445 -0.13038293 0.16686377 0.3495644 0.44242567 0.45455465 -1.25398 0.6600197 -0.3581833 0.4985757 0.053416748 -2.6112292 -0.1409275 -0.06875546 -0.8380799 -0.35850635 -0.04153735 -0.13733958 -0.19488944
成为 -0.8987181 0.5800174 0.18457961 0.11758887 -0.48346028 -1.2814113 1.1457621 1.3747437 -0.11195413 -0.38635138 -0.69331974 -0.5140475 -1.2725835 -0.7862842 -0.5477958 -0.14119779 -0.8453902 -0.7835598 0.03837818 0.41286588
相信 -1.3172549 0.61761343 0.24853513 0.34728947 -0.6698852 -1.0707701 0.17116785 0.5070459 -0.34329373 -0.3034427 0.19641168 -0.55845016 -1.0454688 -0.56801856 -0.34555185 -0.3851641 -1.5795178 -1.4505987 -1.1345301 0.68308395
最好 -0.7220586 0.6061823 -0.2995342 -0.65452826 -0.32149255 -0.41369 0.27847978 0.8529895 0.13293137 -0.21876836 -0.39179337 -0.8624695 -1.22396 -1.111709 -0.30185375 -1.2577121 -0.5340814 -0.37330043 -0.063576885 0.47618902
发 -0.28150183 0.16411467 -0.48910594 0.5049994 0.7489801 -0.36316952 -0.21374099 -0.8539954 0.32921568 -0.69422746 0.6200152 0.6896356 -0.7480481 -0.823411 -0.030298017 0.60147035 -0.014093208 -0.43647566 0.6072763 -0.14564481
恶心 -1.3826486 0.0013145044 0.29079354 -0.69121075 1.0419751 -0.9806333 0.13756895 -1.8682382 1.5567912 -0.45566607 1.4207892 -0.20454475 -0.7666644 -1.4926635 0.3193674 0.28587213 -0.60513425 -0.8573281 -1.2923672 1.5808109
分钟 0.9151873 0.5297484 -0.5239883 -0.40712586 -0.16589564 -0.3559153 -0.11364112 -0.64598393 0.13147411 -1.2420876 -1.4411724 1.3758997 -1.182632 -0.10776953 -0.36585367 0.838381 -0.023308467 -0.9767394 0.3649007 -0.147911
见 -0.8479314 0.022250054 -1.0286719 0.6677825 -0.389796 -0.47949466 -0.443011 -0.7574595 -0.22884102 -0.1670246 -0.03306506 0.60342366 -0.9761592 -0.8358374 -0.4377852 -0.30617815 -1.3173382 0.34546626 0.41093028 0.21122493
哪 -0.21891204 0.13037495 -1.3373132 0.45250958 1.1339649 0.1395647 -0.8662035 -0.21789226 -0.8388674 -0.6706026 0.5240649 0.46732864 -2.0368738 -0.75269526 -0.17903383 0.7352162 -0.7355922 -0.04565338 0.4865254 0.369007
站 0.15313041 -0.25667137 -1.0701114 -0.940465 -0.07613347 -0.7407364 0.22599469 -0.5492998 -0.49892342 -0.5567176 -0.67246914 0.13095024 -0.9776493 -0.7040786 -0.5169779 1.4393932 -1.2247177 -0.18090338 0.029627018 0.06976049
高 -0.10973861 0.28221902 0.8795834 -0.4961678 0.70756644 -0.10828355 0.62935483 -0.22497816 0.62467843 -0.6195453 -0.0848455 0.01716019 -0.20575054 -0.8061784 -0.14359407 0.31111467 -0.55653787 -1.5891993 -0.1436734 0.53861016
照片 0.30241734 -0.4581035 -0.7157391 -0.5558727 0.8069258 0.06874447 -0.18149333 -0.380964 1.4328811 -0.070649326 -0.16440359 0.5982476 -1.083663 -1.0858744 0.37463698 0.86446416 -0.094635315 -0.104358055 0.716686 0.756762
掉 0.5921204 -0.3700918 -0.7465102 0.41014627 0.37209985 -0.39575073 -0.7215597 -0.5521561 0.016545538 0.038966574 0.28058475 0.5961717 -1.2057253 -1.3244143 -0.27738252 0.59233046 0.7437191 -0.5291035 -0.29088396 -0.32716027
手 0.48595062 -0.34266028 -1.543444 0.39693272 0.8126862 -0.6768714 -1.0033983 -0.51600796 0.5047967 -0.7688628 0.15580459 0.507261 -0.4469133 -0.43160728 -0.8935889 0.26029086 -0.27806243 -0.5396231 -0.30119115 -0.32058632
挺 -2.126485 -0.3831673 -0.20939723 1.0433242 1.2283229 0.065638706 -0.11824829 -0.081874736 1.0086423 -0.4602381 0.253616 -0.008613236 -0.26869932 -0.97878253 0.6995498 -0.7094315 -0.6268668 -0.9762309 -1.1921 1.249542
影响 -0.87787855 1.7630768 0.4168249 -0.19261572 -0.1526118 -1.1799666 -0.33770415 -0.31314307 -0.47613323 -0.5883871 -0.3064418 -0.61464506 -0.49374977 -0.6298321 0.015751287 -0.08220318 -0.40242723 -0.4964201 -1.2255359 -0.25024566
吓人 -0.91887915 -0.34197876 0.5809471 -0.08510304 1.0801554 -0.85986584 0.07683499 -1.2867215 1.5996522 -0.33404982 0.83359176 0.3187157 -0.26203796 -1.7623814 0.78547865 0.45690465 -0.54218066 -0.7709233 -1.3075339 2.3045173
也许 -2.135999 0.3052034 0.16105922 0.3900597 -0.7219496 -0.47598928 -0.29285628 0.73159593 -0.37826324 0.03007954 0.09884523 -0.68109584 -1.8766509 -1.502032 -0.0009494738 -1.3046455 -0.7968804 -0.5150455 -1.7206128 1.3312542
鬼 -0.46629417 0.017442355 -0.039072122 0.03225705 0.49056873 0.5153124 -0.3635074 -0.37562117 0.2806161 -0.71925133 0.55070466 0.3849808 -1.5095768 -0.85979146 -0.011935524 0.7531431 0.24538285 -0.8475028 -0.0014319998 0.5012069
根本 -0.7832062 -0.4750938 -0.3880941 0.7653469 0.18475293 0.12351725 -0.68280965 -0.062236235 -0.38898498 -0.6867334 -0.41518927 0.12303386 -1.6023855 -0.18948744 -0.1270667 0.25944924 -0.75873226 -0.5184788 -1.5717148 0.37311104
累 -1.3934126 -0.013213914 -0.67499524 1.3947079 0.48521608 -0.65941787 -1.0296026 0.16927649 -0.32686904 -0.57135063 0.40942866 0.39735335 -0.52344924 -1.6990778 0.12062339 -1.0470499 -0.50259966 0.002327037 -1.5161731 0.19979326
看见 -0.57697576 -0.6028349 -1.2350465 -0.12767294 0.24035384 -0.37108034 -0.60040593 -0.63849777 0.54861116 -0.13653357 -0.01898806 0.59540075 -0.6720209 -0.7618472 0.32067525 0.3692546 -1.4176838 0.0681424 -0.16363342 0.15910107
有时候 -2.0227332 0.30118665 -0.07345964 0.49758962 -0.027052317 -0.7420261 -0.17869219 0.26306453 0.05565958 -0.55499536 0.66284466 -0.9567341 -1.2963587 -0.75300837 0.016077915 -0.7217466 -0.31590033 -0.35245037 -1.4169521 1.0134453
帮 -0.55970323 -0.7965951 -0.73701626 0.5366262 0.14715701 -0.14675678 -0.55924284 0.66024446 0.36171794 -1.1931534 0.65802217 1.0480483 -1.0707982 0.2610468 -0.35387298 -0.12884492 -0.3503841 -0.8836941 0.006715535 0.17071368
明白 -1.2747666 -0.25285655 0.3923273 0.6974656 -0.31114763 0.15943435 -0.03524015 -0.12198806 -0.6476923 -0.45521674 0.2588547 0.49097788 -1.7413696 -1.6207294 0.089847356 -0.48785746 -2.3900747 -0.49937543 -0.63407904 -0.27210134
进行 0.058555905 1.0352392 0.4631651 -0.3598242 0.3044227 -1.0272261 0.41082382 0.49875784 -0.096322075 -1.6080211 -1.2055726 -0.011443465 -0.8455504 -0.74805045 -1.149384 1.2305533 -0.6356389 -1.1120687 -0.09641088 0.20858788
那种 -2.1401386 0.1759459 0.15511364 0.02838641 -0.11049792 -0.6676872 0.7336873 0.105482176 0.6118594 -0.379861 0.55610305 -0.6833029 -1.5685403 -0.8546626 0.0370349 -0.563571 0.3769369 0.119924225 -1.5408477 0.25999093
真心 -1.3306623 0.45421386 -0.3130412 0.56337345 -0.3769842 -0.3108546 -0.31369355 -0.34459314 0.5093403 -0.36606637 0.06949108 -0.36713886 -1.1945236 -0.22573553 -0.013425202 -1.1132922 -0.04771487 -1.212682 -1.0062743 0.63164186
认识 -1.2997013 0.3903708 0.17113559 0.63313025 0.22829267 -0.16822113 0.119645625 -0.9996596 -1.0944686 0.15714109 0.3138429 -0.6605015 -1.6984401 -1.2018936 -0.3203083 -0.24518308 -2.2826052 -0.9101514 -0.25044668 0.37741974
送 1.4652417 -0.5288343 -1.806498 0.20074467 0.3089268 -0.082399376 -0.35914525 -0.19088963 0.92483926 -0.3859663 0.29717433 0.6560818 -0.9675579 -0.5711112 -0.4352769 -0.43628094 -0.33595303 -0.9241915 1.2238053 -0.0069163186
哒 -0.34990913 0.6239487 -1.0865914 1.7031487 -1.3472494 -1.1387284 -0.95017284 -0.30290982 2.7481349 -0.1009466 1.273915 -0.37025988 -0.5334695 -1.585426 1.3653197 -0.53975683 -0.17003044 -2.69879 0.21377072 0.09058671
今晚 -0.0449952 -0.30392033 -0.76588804 0.7361472 0.40854788 -0.3408737 -0.75996643 0.32925743 0.27348384 -0.59309846 -0.028719703 0.86749905 -0.79541045 -0.50058454 0.55954516 -0.07011966 0.08556734 -0.1435558 -0.092392035 0.027121129
想想 -1.5246985 -0.51933086 -0.20802893 0.88500094 0.84998274 -0.41437122 -0.91588455 -0.32409433 0.27720657 -0.3826006 0.066073224 0.65007746 -0.9527722 -1.277224 0.10647104 -0.22830816 -0.8860401 -0.4331551 -0.75371575 0.24567126
所 -0.5600941 1.0735028 0.7396418 -0.58275694 0.18103185 -1.1189096 0.53119767 1.4275453 -0.23866177 -0.86027443 -0.63387936 -0.48013747 -1.2768548 -0.6993801 -0.7361465 -0.2170375 -0.38839942 -0.45025435 -0.56015205 0.32390773
两天 -0.76325387 0.4444683 -1.4008768 0.83413243 0.8688073 0.068214856 -1.843908 -0.6082079 0.46902514 0.064953834 -0.8714422 1.2669704 -0.8132899 -1.6143475 0.13776638 0.41366982 0.35522586 0.25149933 0.3787685 -0.029270187
起 0.73508483 -1.0789199 -1.1852081 0.21025173 0.11977484 -1.0905945 -0.73178923 0.88868433 0.07862312 -0.04117146 -0.5800536 1.1127833 -0.7480939 -0.7879329 0.19515537 0.27350256 -0.13701141 -0.1326831 0.049828395 -0.16223204
早 -0.18633248 -0.39605427 -1.2238418 1.3837651 0.9359879 -0.33527204 -1.4001685 0.4084378 0.124630615 -0.38862255 -0.11860894 0.7608053 -1.0706475 -0.7500807 0.4585695 0.64644283 -0.27261066 -0.40098837 -0.1007473 -0.04535757
完全 -0.7126582 -0.11331982 -0.16351782 0.49991515 0.30185902 -0.12241945 -0.21749078 0.25543037 -0.80552715 -0.018701332 -0.24474195 -0.1465615 -1.4810066 -0.6363744 -0.280569 0.37477124 -0.67041254 -0.54521805 -0.85417515 0.65814316
是因为 -1.6694024 0.21475878 -0.005722407 0.9348866 0.26587942 -0.19918205 -0.45255953 1.2015969 -0.4486578 -0.37447006 0.39250433 -0.3434546 -1.3691376 -0.5398883 -0.45833445 -0.31150302 -0.2989016 -0.29370975 -1.2243106 0.29998067
未来 -1.773239 0.5456087 -0.2243408 -0.070356004 -0.44218716 -1.4364692 -0.27732277 2.071409 -0.16449147 -0.2660105 -0.6454275 -1.2932782 -0.8386759 -1.344748 -0.07286098 -0.20245004 -1.7292064 -0.21352391 -0.8679787 1.348604
内 0.7345709 0.49584565 0.071403645 0.011521483 -0.10498517 -1.1080359 0.33994535 0.6424464 0.1931516 -0.57364607 -0.9542056 0.9473199 -0.84603196 -0.932427 0.20045085 0.8039443 0.68754804 -0.5676857 0.7733368 -0.9126176
不喜欢 -0.91797954 1.2211009 -0.34697303 -0.11994044 0.48226243 -0.35198712 0.31241068 0.3448997 0.0843052 -0.39256823 0.48990566 -0.51335746 -1.1029168 -0.47544718 -0.30892038 -1.2656015 -0.5726132 -1.008556 -0.48352635 0.007857711
难受 -1.4474785 -0.29678532 -0.39000154 1.0860152 1.1601549 -0.9691409 -1.6188607 -0.6045332 0.22497156 -0.49599633 0.9023738 1.1266485 -0.69028664 -1.1054186 0.19982621 -0.22247083 0.040287293 -0.053911142 -2.6595106 1.0546476
视频 1.0006018 -0.38704666 -0.44888338 -1.0534497 0.63177824 -0.27238896 0.29720834 -0.015078041 1.4806257 -1.1755469 -0.1398555 0.7606823 -1.4265786 -1.0954914 0.32515898 1.4774574 0.00039331423 -0.20558661 1.2680871 1.0667855
男 -0.38665533 0.31617576 -0.5783298 -0.786986 1.0057464 -0.8204905 -0.24305476 -1.0238969 0.7349097 -0.5023518 0.6171627 -0.68204516 -0.32037967 -0.7240052 -0.080008134 0.19448029 0.0936552 -0.8449624 0.30011988 0.83572096
加油 -0.6961297 0.32044825 -0.61436474 1.0238374 -1.0811459 -1.5065696 -0.6030832 1.0697598 1.3050905 -0.6684322 0.01739585 0.7110711 -0.37427226 -0.6033014 1.08782 -0.87701356 -1.0838301 -0.80121505 0.29070097 0.48204425
艹 -0.45191827 2.006712 -0.291504 1.0643511 1.9729183 -1.902754 -1.0073181 -2.0547347 0.467888 -2.6873126 0.6479004 1.0686879 -2.3180254 -1.9126463 -1.793218 1.0535307 0.87049526 -2.470965 -1.3133334 -0.45168883
里面 0.008602175 -0.19287911 -0.5528756 -1.0534765 0.24287467 -0.06676557 0.20759784 -0.62580055 0.5081732 -0.58716214 0.08759034 -0.037814777 -1.5881438 -1.1091858 0.37829703 0.7279027 -0.06182314 0.030153388 0.34896186 0.7554591
骂 -0.6197243 0.37786567 -1.0694548 0.1766487 0.16694188 -0.5650321 -1.6911447 -0.9025872 0.122468136 -1.3018377 0.7752601 0.49564227 -0.8206163 -0.5151125 -0.20700695 -0.0659875 -0.47264293 -1.1674409 -1.2322155 -0.012890144
由 0.4964283 1.2213587 0.7525129 -0.38479024 0.11692774 -0.979823 1.010237 0.63439953 0.16075587 -1.2187223 -1.2071967 0.06677823 -1.2137774 -1.3704915 -0.7248064 0.48232216 -0.035613373 -1.0775753 0.38255 0.5869612
穿 0.42417312 -0.1411651 -0.8067176 0.4845503 1.0750004 -0.01654451 -0.5991958 -0.74065703 0.6000757 -0.19296005 -0.2812724 0.32049447 -0.68117535 -0.7911741 -0.10248183 -1.1788044 -0.85397977 -1.1585824 -0.5645692 -0.07988951
过来 0.098016776 -0.90345573 -0.6582601 0.7609685 0.395883 -0.18378982 -0.3338143 -0.35631132 0.4183622 -0.8669998 0.3135788 1.4149396 -0.9504718 -0.5442382 -0.23663436 1.171845 -0.1600971 -0.75983196 -0.05169229 -0.41290697
下雨 -0.5199366 -0.02901646 -2.0083349 0.49059325 0.35820353 -1.1251794 -1.2952067 -0.80212635 0.14054157 -0.5381378 0.59383315 0.80235696 -0.8632815 -1.0460026 0.35560223 0.14740282 -0.35524672 0.06420507 -0.8927886 -0.65431416
可爱 -0.6283199 0.24895611 -0.13506334 -0.0829613 0.6333613 -0.65304106 -0.1510455 -0.7372008 1.4621779 -0.30855644 0.7465394 0.3742249 0.2684208 -1.4842366 0.7482578 -0.1975678 -0.8870295 -1.3721045 -0.709803 2.013965
睡着 -0.55886704 -1.3414923 -1.8112804 0.24231969 0.63626873 -1.0662436 -1.3679643 -0.4969243 -0.012683185 -0.24346307 -0.10888776 0.9744016 -1.254058 -0.9343497 0.350665 0.50236535 -0.3805945 0.17362922 -0.7010921 -0.4872181
讲 -0.28355417 -0.4233432 -0.7959237 -0.05568343 0.64224344 -0.2129489 -0.6444366 -0.76715666 0.3254738 -0.6557689 0.5511611 0.11716265 -0.7111888 -0.4963096 -0.014852822 -0.19900122 -1.1880336 -0.65943766 -0.26779583 0.22920324
记得 -1.0677845 -0.56163126 -1.2604175 0.44674832 0.5245932 0.3577359 -0.5017077 0.17648414 -0.24559173 -0.23226479 0.5186635 0.8270086 -1.2586828 -1.1422303 0.3920026 -0.12262103 -1.7861468 -0.46825647 -0.40797418 0.45650685
主要 0.25168765 1.2364377 1.0798597 -0.5299953 0.08715367 -0.32937798 0.73001903 0.05454625 0.070338845 -0.8980268 -0.22224264 -0.32873285 -0.8755902 -1.1009728 -0.06562225 0.14864865 -0.09820297 -1.3952917 -0.35004145 0.95672894
领导 0.60318416 1.0061322 0.15380149 -0.54359746 0.5327609 -0.9570097 -0.46359667 0.30639178 -0.30043384 -1.6606708 0.18954466 0.25056157 -0.91917807 0.093478695 -0.52669513 0.42942625 -0.30600622 -0.9833068 0.28219837 0.28754386
冷 -0.5770975 -0.38636348 -0.7354485 0.83482933 0.8676887 -0.4863533 -0.8410751 -0.61281705 0.7494947 0.013312077 0.22765592 1.0193902 -0.16150089 -1.5420165 0.48093313 -0.15073873 0.08442164 -0.19786184 -1.2089224 0.4732444
超级 -1.5161612 0.20866296 0.042241476 0.17480865 0.35871425 -0.9847743 -0.13949738 -0.57205224 2.997367 -0.398573 0.8320971 -0.62018806 -0.9702469 -0.8108088 0.73607606 -1.3736541 0.3310661 -0.81675124 -1.6341991 0.9252472
学习 -0.10776662 0.6447305 -0.51752883 0.0031778547 -0.48310432 -1.0383058 0.043092545 0.4530402 0.048641525 -0.61622673 -0.29429114 0.04626463 -0.7914947 -0.23792751 0.19616313 -0.29879972 -0.7724892 -0.5095996 -0.56002593 -0.24815287
干嘛 0.49795204 0.30264837 -1.2229722 0.98101324 0.37850496 0.17476383 -1.5044615 -0.32540575 0.20403217 -1.1531687 0.96018386 1.0183886 -1.4473531 -0.32767597 -0.29875523 0.26639897 -0.73002994 -1.2577013 -0.74939024 0.3217701
谢谢 -0.69588053 -0.008358096 -1.356886 0.37949735 0.16666485 -0.5370933 -0.72176325 0.29134315 1.1516649 -0.3522791 0.53888404 -0.038798455 -0.34357426 -0.7408927 0.4610106 -0.86309296 -0.51063854 -0.7593581 0.06325933 0.6134477
学生 0.51521635 1.4742783 0.08057735 -0.7955783 0.3921148 -0.984447 1.0526446 -0.009007581 -0.27743033 -1.3988148 -0.21368715 -0.018775009 -0.22502376 -0.8915763 -0.6630177 0.3514185 -0.015431066 -1.4024483 0.6374348 -0.12359018
老公 0.12540829 -0.2984547 -1.5097226 -0.18935937 -0.22430916 -0.3588655 -1.149226 -0.10569587 0.51120096 -0.67309356 0.4270888 0.59957314 -1.119139 -0.60568416 0.2856046 -0.35454753 -0.9349608 -0.4242844 0.1727273 0.65096337
情况 0.21271734 0.30106264 -0.40069103 -0.7099572 1.1047764 -0.008265602 -0.15215941 -0.15526581 -0.029925456 -0.6331334 -0.25154042 0.38654914 -0.84154713 -0.5546721 -0.8041405 1.0431511 -0.1946233 -0.72339296 -0.007862371 0.12166002
今年 -0.09091063 0.342984 -0.64711016 0.70170605 0.6644795 0.18451431 -0.161618 -0.061534304 -0.05553678 -0.102035135 -0.8187396 0.492992 -0.90260893 -1.7917609 0.6372784 -0.62152433 -0.25288433 0.038159005 0.9617536 0.3997525
舒服 -0.8451427 -0.7931972 0.13486294 1.9622324 0.6076547 0.01722831 -1.2502073 -0.741044 -0.27151287 0.09822232 0.20679352 0.4990772 -1.6215439 -1.2014831 0.19773091 0.42675084 -1.9627949 -0.8478924 -1.8433989 0.15525648
愿意 -0.98155904 -0.5108382 -0.044173107 1.6641177 0.053602185 -0.32297495 -0.43394056 0.6332254 -1.2274288 -0.36709496 0.35936883 -0.3723952 -1.866922 -1.0135134 -0.456075 -0.40317157 -2.1174965 -1.0190339 -1.2833632 0.28732622
家里 0.45095342 -0.47417042 -1.430577 -0.157954 0.34131798 -0.5089889 -0.819927 -0.6533692 0.09175045 -0.5226107 -0.10120166 0.55548185 -1.2343221 -0.4547582 -0.029094074 0.31274718 0.015367601 -0.31719223 0.44417396 -0.027476326
慢慢 -0.71210974 0.3740734 -1.0219746 0.5015768 0.2563128 -1.3402292 -0.1706878 1.2338222 -1.2164233 0.27243984 -0.5552812 -0.043885067 -1.723228 -1.3289915 -0.19989043 -0.08578795 -0.8670086 0.13673443 -0.394269 -0.20528471
呵呵 -0.34611985 0.93562895 -0.33189708 1.1499037 -0.41812018 -0.61104023 -0.65560555 -0.64230734 1.5799744 -0.20578638 0.90781635 -0.22295566 0.04234741 -0.5737709 0.94205236 -0.5112801 -0.2730263 -2.5930934 0.6961919 0.20987746
故事 -0.75605524 0.17588493 -0.38481122 -0.8151901 0.6225945 -0.7270914 0.6651042 1.2154831 -0.15072912 -0.2834163 -0.5595163 -0.9895325 -1.2656304 -1.3878859 -0.059759412 -0.46102002 -0.7043246 0.5244879 -0.12873186 1.2783035
听到 -0.61753815 -0.4827581 -1.3838549 -0.29726157 0.1591953 -0.36853662 -0.3191011 -0.27070513 0.8127838 -0.41346318 -0.011824068 0.43921432 -0.76273555 -0.3362083 -0.0034647544 0.15562919 -0.92133033 -0.28865424 -0.03856375 0.3223098
作业 0.96534634 0.0015553677 -0.09516949 0.72546947 0.71477544 -0.63158166 -0.92432 -0.083970346 -0.5779002 -0.908626 -0.35479656 1.0452509 -1.3267086 -0.6163561 -0.0015340555 -0.111199446 0.5111687 -1.1913816 0.15980963 -1.2105229
脸 -0.055500787 -0.58586705 -0.9669859 -0.20692353 1.0449972 -0.33351606 -0.42539504 -0.8274989 0.5391375 -0.36198935 0.14685889 0.47073182 -0.7196454 -0.9607888 0.1214946 0.2925649 -0.054899383 -0.4314661 -0.30382863 0.50475246
分 0.5969158 0.19325165 -0.10608006 -0.36948857 0.42796993 -0.5874203 -0.37981427 0.044119682 0.56220394 -1.274634 -0.37500215 1.294904 -0.04673259 -0.60960597 0.3225325 0.88109446 -0.05590413 -0.968662 -0.019219765 -0.10553727
一件 -0.70270747 0.3855341 0.3634213 0.4618967 0.12284586 -0.42775 0.19760233 0.59583867 0.92524475 -0.6202463 1.2626803 -0.98582304 -2.368741 0.111310214 0.45110875 -1.4672419 -1.1338108 -0.7917065 -1.8311543 1.0157135
回到 -0.6215169 -0.31888762 -1.2280569 0.38138422 -0.23004422 -0.93697935 -0.0049858284 0.48641703 -0.44840527 -0.059175417 -0.5608378 0.36972165 -1.2834809 -1.006545 0.07295046 0.32031882 -0.049659256 0.5894207 -0.68626994 -0.5079258
想起 -0.7945267 -0.7540403 -1.5122831 0.17469849 0.22215565 -1.003804 -0.2152309 0.11780376 0.26446494 -0.053160284 0.26399875 0.31976083 -0.94709533 -1.152935 0.24675556 -0.15655859 -0.8606875 0.8975603 -0.72197074 0.5554668
我会 -0.634243 0.2505375 -0.7626816 0.8686746 -0.2612949 -0.8151097 -0.860464 0.6225427 -0.38492003 -0.5054591 -0.0011648786 -0.18195787 -1.2720537 0.023795484 -0.14991836 -0.288853 -0.24706545 -0.6970427 -0.9089034 0.023136316
结束 -0.4351679 0.027049778 -0.34069586 0.41127086 -0.4674944 -1.1352499 -0.37058723 0.17649429 -0.2936398 -0.037369374 -1.1049514 0.7458267 -0.69824725 -1.4237403 0.29835942 0.13998885 -0.69675326 0.39499328 0.20770863 -0.3939253
发展 0.22480498 1.3627888 0.6241503 -0.5445068 -0.0049167434 -1.3991975 0.90150243 0.95945996 0.09616193 -0.83794206 -1.2985522 -0.20072332 -1.3911239 -1.183736 -0.4237609 0.5186838 -0.6132768 -1.3087622 -0.008075504 0.56251407
感谢 -0.83988285 0.2048152 -0.70537597 0.04544214 -0.34568033 -1.0150136 0.1186203 0.41028804 0.7941163 -0.38784498 -0.015963994 0.04293712 -0.7113501 -0.7922426 0.17793535 -0.31696576 -0.4822257 -0.6309982 0.11537924 0.91962415
考试 0.5500986 0.27200067 -0.38716438 0.36185467 0.28281698 -1.0876284 -0.78638315 -0.07762715 -0.2994112 -0.99629015 0.19676377 1.2102556 -0.49910364 -0.660499 -0.40192252 0.3195314 0.23680276 -0.37331745 -0.52247155 -0.57464176
不够 -1.2662127 0.033143107 -0.028487192 0.76641315 0.86011624 0.16095333 -0.31386775 0.9268379 -0.80643463 -1.1733773 0.12961417 0.2161425 -1.1389003 -0.75321656 0.054676577 -0.58261776 -0.040519502 -1.062317 -0.13371243 0.22400457
感受 -0.0128441965 0.061078195 -0.28429577 -0.3154884 -0.13455465 -1.332126 -0.272716 0.0016358749 -1.6618828 0.5911066 -0.81199855 0.14440477 -1.4564893 -1.3665786 -0.015211483 0.27511397 -1.5830702 -0.5602611 -0.53478104 0.41476804
不让 -1.8412803 -0.83551365 -1.4618989 0.24083085 0.76856035 -0.79537576 -0.21793912 0.60306317 0.43662924 -0.75771207 1.0792933 0.59138066 -1.8862375 0.7571212 -0.27584448 -0.5946943 -0.91500574 -0.78138465 0.10043744 -0.9951247
简单 -0.5155444 0.23482685 0.21737157 -0.33254752 0.28071034 -0.8043048 0.801368 0.38359532 0.4555084 -0.6803729 -0.033316385 -0.7329283 -0.39917213 -1.0417464 -0.2618703 -1.2712892 -1.0214156 -0.9053684 -0.96693575 0.7808129
北京 0.8926173 0.66911656 0.024099534 -0.5131614 0.02345068 -1.1810542 0.37806475 -0.025572296 0.33599687 0.026585793 -0.94248307 0.41786543 -0.96341693 -1.3972747 0.25609526 1.089867 -0.2894851 -0.33039773 0.7288237 0.09257104
能力 -0.2595788 1.2957889 0.6674102 -0.34799415 -0.34677994 -0.7365106 0.4604885 0.55565894 -0.4407213 -0.54738754 -0.5224626 -0.62554663 -0.9855492 -0.7705607 0.038117178 -0.83371973 -1.1532935 -1.0701762 -0.06475154 1.0873471
变 -1.2029798 0.15781252 -0.31202808 0.5669425 0.26585484 -0.3521264 0.03381131 0.45942682 -0.24180128 0.18904461 -0.15373981 -0.5630504 -1.1060793 -1.2808037 0.26307893 -0.1483922 -1.0531843 -0.24628228 -0.5205968 0.18660495
生命 -0.56230325 1.1780939 -0.376897 -1.012896 -0.4283252 -1.4791235 0.5770444 1.0342873 -0.3954877 -0.07752535 -0.78774786 -1.0270741 -0.9563853 -1.5735136 -0.446773 -0.5027927 -0.38208157 -0.33359846 -0.1623818 1.0644158
换 1.2964393 -0.18133466 -0.8177317 -0.20962676 0.110277005 -0.66114587 0.26056623 -0.5435803 0.8845253 -0.49300689 -0.039160114 0.20623378 -0.5327765 -0.7991234 -0.33102596 0.096758574 0.3323057 -0.66225773 0.39053613 0.05828389
爸爸 0.2610651 0.029853163 -1.607146 0.071691096 0.14491124 -0.14322992 -1.1760612 0.076362096 1.0150985 -0.9370887 0.64122385 0.62331414 -0.66332734 -0.124033 0.14953803 -0.48942512 -0.13214257 -0.61614656 0.4576498 0.41452372
[泪] -1.1367176 -1.6215329 -0.18615729 -0.20195854 0.74408275 -1.1867198 -0.5627064 0.556293 0.8717522 -0.99565005 -0.2907664 1.459198 -1.9726487 -2.225053 -0.997745 1.4327437 0.66915023 0.75030506 -2.3613157 1.3430569
烦 -0.60961866 0.3325495 -0.23813613 0.8390769 0.76811796 -0.6848493 -1.4071983 -0.94320315 0.098314404 -0.9747651 1.0363479 0.66690284 -0.52062726 -0.69343317 0.19202442 -1.0416443e-05 -0.1543035 -0.43256918 -1.0155244 -0.57793456
同学 0.23850404 0.4298206 -1.1613581 -0.41117552 0.5870598 -0.11170332 0.3878937 -0.024509504 0.29086682 -0.62905675 -0.29073992 0.27630937 -0.70456433 -1.0734599 -0.17870155 0.35269177 -0.17155428 -0.17647803 1.1805377 0.48598415
能够 -1.4908493 0.37052622 0.046716955 0.8461107 -0.88640356 -1.9472051 0.5903678 1.3069744 -0.288772 -0.46630514 -0.023127308 0.034071244 -0.5158092 -0.21241629 0.48755488 -0.81274235 -1.6528602 -0.6182349 -0.3115981 0.27977785
弄 0.34775406 -0.41435134 -0.9153904 0.39901364 1.1121546 -0.36831555 -1.6100022 -1.0385925 -0.4893014 -0.80958 0.110244356 1.1276917 -0.87211883 -0.49996796 -0.24054864 0.34771645 -0.48949778 -0.73160887 -0.7878725 -0.0035705145
他妈的 -0.95073 0.14484262 -0.17925718 0.21977183 0.48372605 -1.0281755 -0.44811118 -1.1962422 0.6108078 -1.1214259 1.2563651 0.8717981 -0.4805303 -0.5314935 -0.06839348 0.394859 -0.5258784 -1.088871 -0.5671736 0.022808304
哈哈 -0.105699055 -0.24834597 -0.9387858 0.85796005 0.33769652 -0.19332741 -0.6865986 -0.47332662 1.5406158 -0.29902044 0.41338482 0.6749268 -0.26585543 -0.32696024 0.7809815 -0.53871495 0.010096813 -1.136879 0.5322124 0.48851648
担心 -0.8839978 -0.15233444 -0.35376084 0.6611641 0.13129981 -0.4372855 -0.69699335 -0.18123406 -0.2417978 -0.256611 0.39187795 0.67447174 -0.6543974 -0.58115923 0.42057413 -0.28130972 -1.084284 -0.68088 -1.2544907 0.60824585
一只 -0.1678372 -0.296887 -0.9292687 -0.18115366 0.33007583 -0.3582336 0.12848017 -0.7124706 1.2416878 -0.6148042 0.060425118 0.38493875 -0.9576316 -0.6520877 0.27741122 0.70854294 0.86644936 0.39793187 0.45376885 0.4402553
身体 -0.5340921 0.5062877 0.16367808 0.6202976 0.18554054 -0.35865778 -0.3959858 0.27548042 -0.22431128 -0.3125423 -0.56138486 -0.038994964 -0.8242879 -0.8848953 0.017738538 -0.26562652 -0.5630154 -0.7731403 -1.2246478 0.7346195
结婚 -0.9054895 -0.0066807466 -0.5655264 0.42496023 -0.078874096 0.14681464 -0.7426305 -0.123041786 -0.014507636 -0.17755748 0.48290747 0.19424617 -1.0107085 -0.7870172 -0.37233025 -0.15384744 -1.114402 -0.31681192 -0.849664 0.73811984
医院 1.2968141 -0.5656156 -0.15612058 -0.76230854 0.28252724 -1.0939105 -0.027449487 0.05457171 -0.18601458 -1.3367785 0.08954628 1.3609989 -1.1095923 -0.37799996 -0.5448144 1.222342 -0.3041835 0.17816122 0.13560799 0.62749004
忘 -0.11877098 -0.43253505 -1.190807 0.51901984 0.49585184 -0.07874972 -0.98875827 0.04395787 -0.22673392 -0.26587316 0.36968488 0.41229218 -1.2172749 -1.167664 -0.13858096 0.064868964 -0.19806127 -0.093109936 -0.1556066 0.1085599
感冒 -0.053698078 -0.27030432 -0.52564865 0.9737459 0.8091219 0.060455713 -0.8544388 -0.8125939 -0.8208369 -0.29633078 -0.28299314 1.2511712 -0.9892548 -1.5322692 -0.792726 0.49293324 0.6940645 0.14372355 -0.8363693 0.151756
醒来 -0.7026373 -1.3018202 -1.6802071 0.6365289 0.045710385 -0.87719524 -0.7282802 0.032378543 0.189616 0.097024955 -0.48187384 0.5721522 -1.8096541 -1.2409995 0.50693893 0.24439578 -0.3012117 0.90509975 -0.4106931 0.5372801
忘记 -0.40267769 -0.013100543 -0.78017867 0.8568537 -0.26020852 -0.6612775 -0.66170263 0.72355443 -0.27576596 -0.03926294 0.1936992 -0.055761404 -1.2938505 -0.9275029 -0.057671268 -0.7890873 -0.4454343 -0.25775313 -0.29431918 0.18815751
得到 -0.8538667 0.1984174 0.6989281 0.17819439 0.43541685 -0.68383735 0.07669705 1.1741128 -0.77112496 -0.8084203 -0.22052556 -0.2023193 -0.71641004 -0.6117945 -0.48502618 -0.3837106 -1.110911 -0.6677692 -0.8161697 -0.051258925
放 0.3107672 -0.23511066 -0.7313607 -0.44289866 0.19742227 -0.47243807 0.09975753 0.015917037 0.13056237 -0.47775686 -0.037398323 0.4389545 -0.97660464 -0.5839065 -0.63734674 0.7982104 -0.0789271 -0.22026683 0.089072146 -0.17543413
女 0.21213512 0.26538795 -0.34352767 -1.0096171 0.48645145 -1.1269048 0.5049721 -0.5859517 0.7509351 -0.69784474 0.54443496 -0.59035206 0.048506357 -0.4516164 -0.20563522 -0.17739117 0.028021542 -0.547584 0.5322006 0.7267601
咋 -0.20632428 0.31514493 -0.8424227 1.1949414 0.79137844 0.16545793 -0.87545335 -0.73267555 0.6792383 -0.75646484 0.007176656 0.37237525 -0.627625 -0.24347046 -0.48718733 0.1370658 -0.8437667 -1.0691842 -0.30761984 -0.3691377
差 -0.8136401 0.4486594 -0.16964614 0.37368006 0.7055279 -0.33114251 0.06283912 -0.6685089 0.3651551 -1.290344 0.30700025 0.12232979 -0.013723348 -0.9052964 0.24376208 -0.49979234 -0.5554833 -0.648801 -0.39944783 -0.69431585
儿子 0.2190853 -0.26704568 -1.6506208 -0.21272737 0.28587812 -0.41158634 -1.1147033 -0.48631296 0.551408 -0.7832984 0.37633103 0.5435835 -0.48997948 -0.30202198 -0.17906648 -0.19911455 -0.38280365 -0.3510387 0.18750198 0.40785035
决定 0.079122156 0.16833714 0.26039267 0.36609295 -0.4903007 -0.9438885 -0.2456106 0.83850396 -0.30052108 -0.58687043 0.016302463 0.0764937 -1.1553786 -0.5353311 -0.22524528 -0.6123784 -0.8586655 -0.7587458 -0.7585345 0.02578331
起床 0.15917426 -0.70347524 -1.6798751 0.6011438 -0.17237784 -1.2553687 -1.5603864 -0.89163095 0.9689761 -0.4052993 0.19039044 1.1509193 -1.2609712 -0.32979396 0.718684 0.14120734 -0.17488398 -0.41549557 -0.28526744 -0.79458904
痛苦 -1.5886537 0.045850184 0.6067391 0.22904411 0.46272832 -0.82930005 0.26704282 0.4116993 -0.11575922 0.0068689007 0.024407353 -0.76700073 -0.67160785 -1.512103 0.18371059 -1.3205199 -1.1168956 -0.3945401 -2.1193748 1.5826035
使用 0.24849519 0.35576686 0.54023623 -0.414705 0.0803364 -0.8164877 1.0643923 0.59692603 0.4226295 -0.76605016 -0.748414 -0.024722232 -1.2287655 -0.87651527 -0.6268915 1.0967647 -0.54142046 -1.212216 -0.119726256 0.2479899
失去 -2.1479063 -0.3646971 0.27354255 0.26640955 -0.10935571 -1.3508807 0.83284354 1.905058 -0.18971868 -0.37456062 -0.5029545 -1.005513 -1.5045539 -1.5950524 -0.16499794 -0.6107708 -1.5487508 0.05832483 -1.439269 1.0788326
出门 0.34449333 -0.6286098 -1.3874804 0.31056944 0.36305282 -0.46297207 -1.4943217 -0.6605046 0.8189921 -0.89204806 0.49739584 0.9015799 -0.88643336 -0.53083855 -0.31543145 0.31322676 -0.2664892 -0.50638163 -0.21151224 -0.628882
气 -0.52726847 0.1329298 -0.76322794 0.048386898 0.6825268 -1.0460736 -1.4439998 -0.4205229 -0.25600255 -0.006102808 0.43060565 0.4083838 -0.8755558 -0.82340133 -0.25414145 -0.2840386 0.32129827 -0.15765683 -0.7795512 0.49339497
车 0.35871333 -0.38425332 -0.84611416 -0.47486463 0.8935169 -1.2828354 -0.7796678 -0.1361034 0.31998062 -0.9439881 0.050265 0.67768687 -0.55923444 -0.33533123 -0.86941034 1.1367912 0.3477898 -0.35063538 0.26268423 -0.44512412
电脑 0.8503955 0.049568284 -0.9989554 -0.5183397 0.46298274 -0.6820396 -0.119687535 -0.57432264 0.013594968 -1.0812529 -0.20489126 0.7217064 -0.7577448 -0.5805738 -0.6406243 0.8681676 0.59404004 -0.4549502 0.27262434 0.10021773
特 0.23735373 -0.16505125 -0.013708686 1.0970435 -0.23020747 -0.19025671 -0.6233229 -0.09567631 2.2229855 0.016358884 1.4080728 -0.18067636 -0.5463964 -2.926455 -0.41179186 1.0093229 0.06753925 -2.5504282 -0.428671 -0.077597335
字 -0.42258102 0.24245824 -0.6553998 -0.07025675 1.1915056 -0.07023604 -0.12601711 -0.75884783 -0.69646364 -1.0047276 0.5455268 0.04445229 -0.60396296 -1.8522643 -0.7221549 -0.47802165 0.22497694 -0.17696105 1.4983288 0.05258653
爱情 -0.92074305 1.1485361 0.13410482 -0.35661584 -0.57087743 -0.76070935 0.7963636 0.89555246 -0.16417778 0.058212746 -0.49585524 -1.0893643 -1.1774927 -1.4042956 0.09011365 -0.720862 -0.7684638 -0.6175499 -0.04864168 0.9801121
实在 -0.49041924 -0.10913355 0.36141437 0.6682161 -0.3472818 0.14917007 -0.9983018 0.13447301 0.11657183 -0.21104132 0.263487 0.23114109 -1.0753728 -0.47961038 0.30742472 -0.3761121 0.37477654 -0.6832285 -1.8851832 1.2016183
打开 0.8841481 -0.71456254 -1.1047451 -0.23355946 0.59350497 -0.57031137 -0.3470132 -0.5183918 0.52962875 -0.7835386 -0.23275137 0.8500017 -1.2260528 -0.91187406 -0.16946174 1.4613568 0.06268874 0.58957404 0.028274266 -0.14211997
向 0.24586591 -0.27753988 -0.4582229 -0.23963399 -0.11680793 -0.7434499 1.0226854 0.71521544 0.25759205 -0.467907 -0.5420697 0.42982426 -0.5728595 -0.8416669 -0.33523482 0.5719244 -0.3703003 -0.6131488 0.42339066 0.12369652
早安 -0.20834552 0.2703748 -1.0071111 0.512829 -0.5290715 -0.6980137 -0.1343651 0.20263518 1.2036703 -0.058145154 -0.10697945 -0.1427289 -0.52226806 -1.2024465 0.5457687 -0.5793685 -0.30124772 -0.26431245 -0.0051461454 0.1566847
真正 -1.4582438 0.73953027 0.012849209 0.38547704 0.21049999 -0.34007892 0.47491178 0.5100965 -0.13744079 0.030821634 -0.2902089 -0.78144836 -1.5308003 -1.4072225 0.07285781 -1.0087062 -1.0554216 -0.48570654 -0.34753004 0.6466381
